5 128
1 -0.26444474 0.057355873 0.08365112 -0.12617737 0.08849543 0.11935697 -0.124724835 0.05581237 -0.18457878 0.07892907 0.04637758 -0.22704671 0.15220505 -0.028265523 -0.20984967 -0.13644691 0.09932011 0.042793248 -0.041245464 0.043132827 -0.06841365 0.0009992276 -0.014161488 -0.1399811 -0.17570662 -0.15977007 0.08433614 0.14453788 -0.045998722 0.023699317 0.16436458 0.033058237 -0.058962356 0.08373037 -0.10781513 -0.20818283 0.02687404 -0.025464194 -0.03348205 0.17024945 -0.081908055 -0.15166558 -0.11359461 0.07784038 0.113234535 0.15625241 0.06555646 -0.100073375 -0.037023857 0.11485272 0.024582602 0.084997855 0.15224646 0.026075693 -0.07328508 0.10892428 0.052603573 -0.22239888 -0.12236527 0.007209751 -0.08506486 0.014292862 -0.07954059 0.036704294 -0.0042816643 -0.026675599 -0.005038428 0.035079457 0.08151479 -0.11626772 0.1636857 0.16550438 -0.115581974 -0.15909103 0.084690206 -0.06437259 -0.0060611786 0.036240228 -0.039330132 -0.12749629 0.120487474 -0.054300584 -0.08894417 -0.027934777 -0.17370418 0.0876322 0.037029292 -0.24899267 -0.08264857 -0.055991776 0.03479099 -0.15830636 0.08254147 0.117539786 0.14867997 -0.22774129 0.18987596 0.065863155 0.06703509 0.023988627 -0.1767872 0.004982392 -0.04259911 -0.018008254 -0.059189543 -0.08330665 -0.11208719 -0.006426096 -0.018501772 -0.18974783 0.116613 -0.109799355 0.08630023 -0.16184479 -0.07186411 -0.05556692 -0.039018486 -0.013117407 -0.038121514 0.07150009 -0.0606406 0.02160092 0.04481404 -0.04253142 -0.21335472 0.16789846 0.15462282 0.12697321
4 -0.24592096 0.059400316 0.07971942 -0.124992125 0.080755904 0.10565861 -0.12196363 0.047867984 -0.17293718 0.07162682 0.039065402 -0.21286081 0.13996878 -0.028527603 -0.19922143 -0.12385377 0.09814759 0.042273723 -0.03191667 0.04483856 -0.066742584 -0.0049413308 -0.017282486 -0.13007113 -0.16863853 -0.15083578 0.07487378 0.13602665 -0.041050173 0.026203675 0.1529005 0.037758835 -0.05458604 0.07732213 -0.10509119 -0.19573718 0.029211247 -0.026834436 -0.036119085 0.15821175 -0.07611502 -0.14243202 -0.104717836 0.07362516 0.102091074 0.149024 0.06293566 -0.088864505 -0.034304276 0.10871716 0.021296544 0.07627257 0.14561093 0.029395817 -0.069448166 0.096760415 0.051153913 -0.21039978 -0.11711494 0.01045227 -0.07713947 0.010040422 -0.07238721 0.031087631 -0.0076795537 -0.022813 -0.00955633 0.030441318 0.07689664 -0.10787968 0.15820213 0.15617113 -0.1070203 -0.14596583 0.084428504 -0.061988104 -0.004644534 0.02899488 -0.04080885 -0.12186724 0.11391907 -0.054368358 -0.08434991 -0.02521621 -0.1602363 0.081341706 0.040018566 -0.23421648 -0.078084916 -0.05675503 0.036900535 -0.1448704 0.08067372 0.11172168 0.14151736 -0.21371111 0.17924877 0.06413458 0.0608135 0.022235608 -0.16450892 0.0035601875 -0.037417084 -0.018331494 -0.05454332 -0.072518155 -0.102768406 -0.0025920514 -0.01479999 -0.18021259 0.107108876 -0.104095966 0.08277472 -0.15023038 -0.07260084 -0.05114064 -0.034639712 -0.00899433 -0.037279677 0.06343741 -0.05189085 0.01917782 0.03789731 -0.042969413 -0.197165 0.15717442 0.14311083 0.12019053
3 -0.26593822 0.06561141 0.0792998 -0.13188595 0.08323618 0.11642078 -0.1314422 0.052992426 -0.18708926 0.079631396 0.04892634 -0.22869174 0.14988546 -0.033282544 -0.21033221 -0.13164012 0.107157126 0.04430223 -0.038625173 0.04293668 -0.0648065 -0.0059519843 -0.010981312 -0.14010534 -0.17872915 -0.15477937 0.08437579 0.13717891 -0.04663749 0.029743575 0.16106974 0.035129476 -0.06072111 0.0843822 -0.10811727 -0.21173327 0.026135711 -0.026161343 -0.03561501 0.16235328 -0.08306651 -0.14933775 -0.112058595 0.07219069 0.10961628 0.15697746 0.06008827 -0.097724736 -0.041411474 0.11290901 0.017470364 0.08028586 0.15770431 0.028177507 -0.07467525 0.1057832 0.048346054 -0.2247273 -0.12009958 0.01010744 -0.08639424 0.013050682 -0.0740899 0.03715792 -0.012308617 -0.021047046 -0.009501311 0.037702654 0.08068739 -0.11621863 0.16866642 0.16715491 -0.110771775 -0.15857649 0.08912357 -0.06924326 -0.008227676 0.032002967 -0.045543678 -0.12403439 0.11569117 -0.060921613 -0.0845697 -0.023428403 -0.1727896 0.08529669 0.036259085 -0.25098222 -0.08422896 -0.057957567 0.03627994 -0.1595838 0.08186538 0.115764596 0.15064214 -0.22553906 0.1889247 0.06214108 0.06963346 0.022700287 -0.17032006 0.0062126904 -0.041023698 -0.015080837 -0.054091357 -0.08162051 -0.11250237 -0.0061963606 -0.019398676 -0.19279167 0.11335651 -0.11027299 0.0876859 -0.15455088 -0.07650613 -0.058898386 -0.034384117 -0.009636605 -0.041958023 0.06883416 -0.05878085 0.021432115 0.044364262 -0.04506163 -0.21443735 0.16756876 0.1523652 0.12957712
2 -0.2424154 0.05865559 0.07219177 -0.12298357 0.0827503 0.10597413 -0.120748185 0.04631901 -0.16927572 0.07231939 0.04434312 -0.20806144 0.13542083 -0.02590656 -0.1942466 -0.12494669 0.09834232 0.043973185 -0.032021657 0.039778117 -0.06611019 -0.00059149094 -0.010222526 -0.13004673 -0.16328372 -0.14729923 0.072209924 0.13095063 -0.040028695 0.028481454 0.14797834 0.03550491 -0.0525242 0.07308978 -0.09945168 -0.19515686 0.029350257 -0.023799708 -0.034440544 0.15371552 -0.07372921 -0.13861229 -0.09895498 0.06947896 0.10492918 0.14333643 0.05823469 -0.09086193 -0.037787545 0.105524346 0.016522547 0.07505719 0.14352791 0.02548679 -0.06777793 0.101768546 0.047035772 -0.20760722 -0.11504297 0.009393603 -0.074298546 0.016278526 -0.07189374 0.03430506 -0.00717107 -0.01999579 -0.009685394 0.035769396 0.07227815 -0.11026798 0.15437147 0.15276943 -0.10444754 -0.1466411 0.079373226 -0.062909596 -0.0068855607 0.03456026 -0.035535105 -0.12018042 0.109369956 -0.051058397 -0.07954764 -0.025535498 -0.1617277 0.08136383 0.037724435 -0.22924633 -0.07671872 -0.05118873 0.034210574 -0.14212215 0.07990584 0.10416697 0.13406786 -0.20791934 0.17499751 0.060933515 0.06495842 0.02035644 -0.16008654 0.0006468752 -0.036036618 -0.015698582 -0.050977536 -0.074634716 -0.10597033 -0.00618392 -0.020021461 -0.17621915 0.10085237 -0.10401926 0.08164669 -0.14507161 -0.06914056 -0.055609055 -0.03603751 -0.007300093 -0.037565768 0.060399152 -0.052345134 0.015387998 0.037815303 -0.041835424 -0.19726937 0.15223947 0.14170007 0.11515208
0 -0.24504411 0.058318894 0.07627714 -0.12324126 0.080009356 0.10926489 -0.11730168 0.046826962 -0.17133616 0.07291794 0.03920557 -0.20965435 0.14068027 -0.029307079 -0.19406207 -0.12244483 0.09660352 0.04353505 -0.03535103 0.040736455 -0.06507848 0.0010131083 -0.012424382 -0.12621306 -0.16281228 -0.14841054 0.07533589 0.1285398 -0.039535217 0.026308611 0.1515774 0.035561834 -0.05715143 0.076195866 -0.10191624 -0.19233496 0.027901204 -0.019213088 -0.029187204 0.15541765 -0.07512816 -0.14112744 -0.104224704 0.0692138 0.09923452 0.139151 0.05972589 -0.086311035 -0.033194162 0.10773332 0.016301937 0.077044524 0.14546701 0.02915107 -0.06471567 0.10132749 0.047948617 -0.20337203 -0.10739086 0.011909134 -0.07289548 0.014600915 -0.06814329 0.035779294 -0.011104031 -0.025454426 -0.0034834524 0.03652687 0.07046198 -0.107905604 0.15196918 0.154042 -0.10039531 -0.14783181 0.07859084 -0.06341813 -0.004157906 0.034565166 -0.03999816 -0.112312615 0.10766381 -0.054619335 -0.07428167 -0.025274238 -0.16057788 0.08319721 0.035920694 -0.22595133 -0.07892632 -0.051525794 0.035970923 -0.14526631 0.07541877 0.10585278 0.13294628 -0.20608985 0.17540114 0.05731012 0.06043269 0.02547925 -0.16183534 0.0010952816 -0.037428375 -0.017899541 -0.054954857 -0.071122475 -0.10504036 -0.00467433 -0.015715955 -0.17885815 0.104361646 -0.10451473 0.07557396 -0.1479741 -0.070526406 -0.055702288 -0.035570987 -0.0053789546 -0.03955651 0.060150307 -0.055542544 0.019334711 0.04277455 -0.038194444 -0.19203064 0.15376882 0.14012325 0.11530281
