34 128
34 0.02377037 -0.096526705 0.08074944 0.25388968 -0.07241465 0.097979106 0.2020329 -0.07767331 0.007508795 0.087863766 -0.031746052 -0.15437487 0.07885983 0.024634816 0.015747253 -0.18667041 0.05159318 -0.05278831 0.08404143 0.022117725 -0.003828986 -0.20061338 -0.14476842 -0.032362975 -0.0037961006 -0.03698693 -0.31220764 -0.090648 0.029334225 0.10459528 0.15960813 -0.046233732 0.0345171 -0.14561327 0.065700166 0.08933131 -0.00017533821 -0.118847765 0.06354679 -0.03519767 0.116648026 -0.1495408 0.085224755 -0.079435095 0.19383751 -0.015173933 0.027324552 -0.08885789 0.10568483 0.03423086 -0.049140926 -0.07121508 -0.14873551 -0.04814179 -0.26138562 -0.084595636 -0.17976573 0.03164288 -0.12577991 0.12442293 -0.096844584 0.13407536 -0.14525945 0.22384985 -0.057885293 0.061328422 0.059780058 -0.11568261 0.012461614 0.31147152 -0.18550034 -0.098262735 -0.16032119 -0.09707589 -0.0021556602 -0.06042559 0.2159599 -0.079777405 -0.048510324 -0.064112954 0.29689595 -0.042280562 0.14550261 -0.1593038 0.05537278 0.09696739 -0.12161424 0.18475941 0.12949008 -0.0007560658 0.025548382 0.07615081 0.09116703 0.30880457 0.08943299 -0.00567504 0.08332986 0.24805172 -0.196398 -0.14438967 0.05850672 0.13345538 0.012267044 0.01717973 -0.07032493 -0.09174517 -0.10938703 -0.060812052 -0.14835492 -0.20593953 -0.111732356 0.017887315 -0.104964346 0.014938497 -0.016699044 -0.0064390544 0.0855047 -0.062509924 0.15365368 -0.0727552 -0.01856531 -0.2386778 0.044467054 -0.0758612 -0.0012568375 -0.10847106 0.22065312 0.014113967
1 0.03188216 -0.042479444 0.12183135 0.13419643 0.04429591 0.034328774 0.22599386 -0.10070491 0.04989554 0.05588428 0.04217856 -0.17398286 0.033028327 -0.05334169 -0.1993669 -0.20555702 0.04777058 0.03930475 0.026109166 -0.14988117 -0.063175544 -0.20379873 -0.10135634 -0.17113607 -0.03821385 -0.015835818 -0.21810953 0.033673182 -0.020043792 0.0043778573 0.19725895 -0.06495954 -0.074858636 -0.1184585 -0.0086826645 0.10462287 -0.06524726 -0.19611567 0.09540407 0.08413364 0.066820055 -0.32619157 0.09030455 -0.1562929 0.011622906 -0.020291543 0.0857439 -0.12721908 0.06713411 0.045265537 -0.0416658 -0.031342935 0.072329156 0.042274162 -0.015709091 -0.13418496 -0.119121514 0.1515946 -0.0197748 0.043006543 -0.2085072 0.204596 -0.025226122 0.3118247 -0.048109144 0.11808245 -0.13271059 -0.20572478 -0.00451457 0.28454518 -0.15771997 0.031468865 -0.20529044 -0.07758444 0.1205102 -0.023701642 0.08907395 0.088587925 0.008101273 -0.16289614 0.09465116 0.04009303 0.22555046 -0.058433972 0.15890057 0.026896521 -0.0072259963 0.011876872 -0.023516918 0.0354599 0.09050947 -0.12124468 0.09158898 0.23882672 -0.0077373926 0.13534184 0.20425442 0.013620114 -0.051971853 -0.1369508 0.022558456 0.22132502 -0.17227156 -0.07742484 -0.018713431 -0.099431574 0.05172549 -0.005511837 -0.03609862 -0.10270168 -0.029462116 0.06451065 -0.033332173 0.023512978 -0.14647162 0.077490605 0.1302015 -0.06804876 0.02007145 -0.065979406 -0.0410486 -0.14873758 0.095352955 -0.020557383 0.09100465 0.10951874 0.1535512 -0.05573786
33 0.017848035 -0.091037855 0.07279962 0.23259065 -0.06093333 0.08686877 0.1913625 -0.07514588 0.0021927173 0.08184647 -0.023062967 -0.14497885 0.0712268 0.021455044 0.0077151973 -0.17657205 0.043075908 -0.044966657 0.074668296 0.020026913 -0.015880596 -0.17826119 -0.1331479 -0.040341612 0.0019047137 -0.03405615 -0.2826309 -0.07562416 0.021839773 0.08837206 0.14700922 -0.04631411 0.027588693 -0.12568326 0.059675463 0.08837911 -0.0015038782 -0.11161569 0.061692875 -0.031820163 0.10610187 -0.14001743 0.07482908 -0.06821999 0.16893837 -0.016160479 0.02481424 -0.08013984 0.08949937 0.035929028 -0.04754359 -0.06930251 -0.1312656 -0.045554474 -0.23214819 -0.084870696 -0.16237701 0.034643296 -0.10971281 0.109177664 -0.09615457 0.12452624 -0.12824574 0.20621711 -0.045995314 0.060128585 0.04898667 -0.11050154 0.010157613 0.28402546 -0.1648559 -0.08319712 -0.15165786 -0.09371884 0.0072137276 -0.05802346 0.1886899 -0.064000644 -0.036291976 -0.06283074 0.26666132 -0.041877758 0.12909031 -0.14319167 0.053597003 0.085964896 -0.110907316 0.15958934 0.104617834 0.004856834 0.01967403 0.06588181 0.07720377 0.27583942 0.08143735 0.0020323922 0.07789136 0.2128165 -0.17293704 -0.13347894 0.050717857 0.12426835 0.00012065802 0.016814083 -0.063362725 -0.08736497 -0.09384084 -0.04917661 -0.12600015 -0.1843583 -0.09887728 0.022110714 -0.086242795 0.010857771 -0.021598477 -0.0056724288 0.08633351 -0.04929388 0.13624497 -0.059552655 -0.019506203 -0.21426633 0.04302166 -0.07105779 -0.0012964341 -0.09195124 0.19772491 0.008967168
3 0.023363953 -0.052211978 0.101134256 0.17018734 0.0025857463 0.05440112 0.20784508 -0.08238018 0.02645958 0.0643082 0.0150286015 -0.16240446 0.041912783 -0.028808879 -0.12340999 -0.19678299 0.037929885 0.0026233597 0.04650504 -0.09246611 -0.0471092 -0.20027313 -0.118836634 -0.12457329 -0.023390612 -0.025272097 -0.24897136 -0.010334926 6.4318796e-05 0.036129083 0.18358593 -0.05789173 -0.03789466 -0.12203435 0.018703002 0.102893196 -0.050252754 -0.16127788 0.0830073 0.043033797 0.078689985 -0.25749993 0.08864982 -0.11804672 0.071770735 -0.01404405 0.06447771 -0.10986564 0.08130433 0.039821785 -0.04833504 -0.04302237 -0.005867239 0.014235376 -0.09958047 -0.11345261 -0.13189428 0.11423825 -0.052427463 0.07101883 -0.16670051 0.17103517 -0.065351374 0.27285042 -0.049519613 0.09497804 -0.06708274 -0.16974773 0.0007891871 0.27125883 -0.15472996 -0.015788943 -0.18432762 -0.08296232 0.07687133 -0.031957757 0.1197332 0.036298763 -0.0052457163 -0.12215444 0.15488209 0.017532708 0.18285283 -0.08816939 0.11175979 0.04130996 -0.0392806 0.06496756 0.02878265 0.020769114 0.060790677 -0.055361215 0.08422294 0.24555801 0.028118536 0.08269955 0.1516047 0.085785165 -0.098856986 -0.123986244 0.034140937 0.17982212 -0.10596341 -0.050717294 -0.030874614 -0.09140219 -0.0055476865 -0.025305986 -0.06182589 -0.13189813 -0.05538129 0.052258383 -0.048807196 0.021388909 -0.10075329 0.045396198 0.11089948 -0.06174826 0.066689074 -0.0634356 -0.027392803 -0.16944714 0.07393438 -0.03383374 0.055851888 0.03368341 0.16666383 -0.032941572
2 0.025125576 -0.06548373 0.10530484 0.1804774 0.013035623 0.06568457 0.22711816 -0.08441837 0.024630995 0.063224405 0.021726182 -0.16116858 0.03931046 -0.023601808 -0.12724291 -0.20710875 0.030376758 0.007160124 0.048779704 -0.09776683 -0.051931765 -0.19484499 -0.12545723 -0.122236736 -0.019048013 -0.031136634 -0.23670737 0.0031762975 -0.012401056 0.03488564 0.1851443 -0.0556856 -0.040717583 -0.12682378 0.009631373 0.10837498 -0.059062194 -0.16297096 0.083791874 0.042576876 0.086194545 -0.267673 0.09238802 -0.12496926 0.069604956 -0.022629544 0.066073515 -0.10698384 0.07490385 0.0437407 -0.042492997 -0.041272156 0.0007847083 0.012505364 -0.08551239 -0.1090583 -0.12662853 0.117225975 -0.044477172 0.07038322 -0.17224865 0.16772468 -0.05754431 0.26974717 -0.048116975 0.0899782 -0.07204263 -0.1721112 -0.0026569255 0.268634 -0.14770071 -0.0055515287 -0.18720354 -0.08205961 0.07181779 -0.025063163 0.114853114 0.04269462 0.0039924495 -0.117152765 0.14994283 0.020421281 0.18448642 -0.08527988 0.11373983 0.03084068 -0.04001574 0.05476473 0.018671328 0.027990565 0.05923266 -0.062503144 0.090346 0.23644602 0.029626563 0.08778676 0.15782897 0.072582304 -0.088228054 -0.121283025 0.031397305 0.17588407 -0.1132732 -0.047739763 -0.02715441 -0.08367865 0.0058021066 -0.022516454 -0.0580557 -0.12711194 -0.042473905 0.05288705 -0.046082743 0.015678326 -0.096882224 0.04598705 0.11549944 -0.061960876 0.061124355 -0.060912807 -0.029166799 -0.16947246 0.07265266 -0.022992391 0.06470877 0.038741082 0.16152535 -0.033476543
4 0.024364544 -0.05116119 0.10601004 0.15833274 0.016584365 0.05355899 0.21239452 -0.08172699 0.031096373 0.057941675 0.02645211 -0.15676019 0.038703214 -0.035060816 -0.13937089 -0.19891797 0.037030704 0.017027698 0.044574693 -0.107996814 -0.05539293 -0.19432047 -0.11572298 -0.124873616 -0.020882547 -0.024313584 -0.2296249 0.008898465 -0.014886651 0.021116138 0.1769165 -0.05685734 -0.0491484 -0.12154039 0.007090493 0.10595934 -0.055460785 -0.16176242 0.09080642 0.05699006 0.07646833 -0.2744996 0.08479756 -0.12816614 0.054557372 -0.018832114 0.07001222 -0.110299475 0.070806466 0.042330537 -0.039803427 -0.034080345 0.01819763 0.023015143 -0.066783965 -0.11012218 -0.11740839 0.12295834 -0.039825138 0.06432433 -0.17571902 0.17295519 -0.048129793 0.26772082 -0.046606608 0.0947624 -0.08446844 -0.17501277 -0.004357106 0.26744574 -0.1500948 -0.0025143828 -0.18018954 -0.07484092 0.08494959 -0.022015166 0.10051028 0.053196106 0.0027062867 -0.1223958 0.12934288 0.024363494 0.1908941 -0.08086327 0.11761095 0.028015237 -0.029649213 0.044156756 0.007960286 0.031075079 0.06477093 -0.07317967 0.088153586 0.23664357 0.017849168 0.09772094 0.16239734 0.056156687 -0.0800158 -0.120165095 0.028846113 0.18159476 -0.12265846 -0.05268761 -0.02462686 -0.08779416 0.013394553 -0.01845058 -0.054972313 -0.11765176 -0.038159713 0.05280691 -0.04583423 0.01572874 -0.10369676 0.053583387 0.11368138 -0.064175904 0.05017102 -0.05791712 -0.03508739 -0.15866351 0.07523289 -0.020349203 0.06390568 0.052097324 0.1555684 -0.036278572
32 0.018494735 -0.08338055 0.081735566 0.21971504 -0.051195126 0.08694012 0.18556847 -0.07128475 0.01190823 0.07995798 -0.021139994 -0.14063533 0.06641718 0.010248456 -0.012643837 -0.17721245 0.047332358 -0.04442913 0.0775548 -0.0013405755 -0.017496984 -0.1866349 -0.13051237 -0.05077043 -0.0047881617 -0.028011467 -0.28358185 -0.068418644 0.021947976 0.08275 0.15511668 -0.046555694 0.024995698 -0.13228579 0.05434402 0.08996248 -0.0056664436 -0.12422762 0.063553944 -0.0190568 0.10207575 -0.15769112 0.075985774 -0.07374036 0.15924913 -0.014258791 0.027339438 -0.087551616 0.0907833 0.03558231 -0.04644795 -0.06184826 -0.11119097 -0.035254024 -0.21118753 -0.086426936 -0.16466753 0.04497179 -0.10457742 0.107042454 -0.1048307 0.13520244 -0.12432212 0.21934438 -0.046368163 0.0645542 0.036924213 -0.113665454 0.013417277 0.2858915 -0.16908081 -0.080190875 -0.15196486 -0.09084709 0.01670414 -0.05607984 0.18115655 -0.05783011 -0.030904755 -0.074666366 0.24982367 -0.027793348 0.142533 -0.13724117 0.06575439 0.08028737 -0.098097436 0.14612347 0.09554744 0.0054518525 0.03267084 0.04105118 0.08136912 0.28200287 0.078597926 0.010752187 0.0915044 0.20856941 -0.16697569 -0.13595594 0.054000173 0.13342617 -0.0080392845 -0.0013794387 -0.063981414 -0.088459335 -0.08374856 -0.052304994 -0.12526762 -0.18310307 -0.09745927 0.023142403 -0.08360496 0.011118357 -0.033776388 0.0013545493 0.0854905 -0.05901248 0.13143322 -0.06501436 -0.018951735 -0.21330819 0.04487954 -0.067974865 0.008934594 -0.07388799 0.19827664 0.005062711
14 0.022475932 -0.05980402 0.103531174 0.17368145 0.005733367 0.059810963 0.21351409 -0.08729619 0.029629469 0.060232215 0.02034758 -0.1628959 0.04032654 -0.025929159 -0.120822474 -0.19797097 0.035383783 0.0029216069 0.050923936 -0.08791514 -0.050612047 -0.19647413 -0.11976906 -0.11729953 -0.018962286 -0.027295168 -0.2347828 -0.0038618126 -0.006873618 0.03502834 0.1744036 -0.056269586 -0.0367454 -0.12611942 0.01134289 0.10271055 -0.05356122 -0.1591375 0.08685082 0.04459308 0.08313909 -0.2589904 0.087260894 -0.12280718 0.07169572 -0.021688212 0.06173695 -0.106500596 0.07648664 0.043890834 -0.049090683 -0.03718984 -0.0027231693 0.014840408 -0.09641071 -0.11176602 -0.1256918 0.11359542 -0.04882102 0.07425734 -0.16811591 0.16370323 -0.0617799 0.2639236 -0.04694334 0.08976636 -0.06563325 -0.16525607 -0.0005127769 0.26519036 -0.14927277 -0.015264525 -0.17966823 -0.079824135 0.069460474 -0.02615839 0.11836234 0.033694692 -0.0039299517 -0.12034948 0.1501375 0.011415996 0.18209536 -0.08359347 0.10970537 0.038482644 -0.04303232 0.062652186 0.022572128 0.027678413 0.0587001 -0.050458163 0.086528264 0.24103068 0.03154577 0.07958461 0.15138477 0.07476632 -0.09271688 -0.12097229 0.029612446 0.17599896 -0.108937584 -0.046610143 -0.029432826 -0.08837957 0.00043389318 -0.021585688 -0.0597083 -0.12808996 -0.04842467 0.051538356 -0.04948047 0.0182933 -0.09771966 0.048025105 0.11164442 -0.05884057 0.06188142 -0.060689963 -0.03052274 -0.16479567 0.07499621 -0.026970245 0.057713352 0.03151924 0.16074148 -0.031970207
24 0.016986256 -0.09087671 0.08362258 0.23327184 -0.059433933 0.089821294 0.19307442 -0.07322601 0.0056164274 0.08342789 -0.027138352 -0.15040201 0.07278797 0.0217044 -0.00011006283 -0.1761799 0.043547984 -0.053977948 0.07357282 0.018801134 -0.007657462 -0.18959881 -0.13234486 -0.036489528 -0.0038123166 -0.03393207 -0.29401827 -0.08088758 0.03240993 0.09398016 0.15402275 -0.043275464 0.032638654 -0.1339632 0.055703074 0.09360508 -0.0027289693 -0.11981426 0.06137411 -0.03017646 0.105577245 -0.1462355 0.078229226 -0.07084464 0.17172581 -0.013117188 0.024875812 -0.07847153 0.096953474 0.037600983 -0.0487163 -0.06330055 -0.13053362 -0.046315316 -0.23889916 -0.08813183 -0.17493515 0.040264588 -0.11392177 0.113398716 -0.096650995 0.13371672 -0.13951427 0.21734665 -0.053230513 0.06313368 0.05066367 -0.10806043 0.015291436 0.2937232 -0.16700417 -0.08954271 -0.15726136 -0.09392136 0.0075295344 -0.06449509 0.2017494 -0.067279786 -0.040544588 -0.06592232 0.27641383 -0.03615562 0.13605095 -0.13994361 0.059720557 0.08508006 -0.10920463 0.16398695 0.116801515 -0.00021479427 0.024534363 0.060282223 0.08223218 0.2882882 0.08505387 0.003365135 0.08170059 0.22768213 -0.18319027 -0.14505021 0.057833586 0.12853962 -0.00020441099 0.005761726 -0.06668412 -0.08535033 -0.0980235 -0.053892985 -0.13539709 -0.19390966 -0.10420339 0.023726078 -0.090716355 0.013559618 -0.029450247 -0.0052090185 0.08506079 -0.056681957 0.14066076 -0.06486579 -0.020293789 -0.22140084 0.042944636 -0.076136485 0.0036820797 -0.095896296 0.21131292 0.011139495
30 0.017214479 -0.09299523 0.07206918 0.24631445 -0.0687587 0.10237509 0.18548973 -0.07336493 0.0006002075 0.08605242 -0.032012638 -0.1400626 0.07579271 0.032467075 0.024996603 -0.16849749 0.04749292 -0.06458664 0.077601224 0.03887878 -0.004928579 -0.18112479 -0.13978465 -0.024364825 0.0020149834 -0.031963766 -0.29510036 -0.095016584 0.03713501 0.10157685 0.1459275 -0.041149855 0.042630974 -0.13735947 0.06524662 0.08676658 0.008927176 -0.111373335 0.05070516 -0.04570859 0.11592279 -0.12627786 0.0765088 -0.06368745 0.19497035 -0.015804615 0.011274057 -0.07150654 0.09655101 0.037824783 -0.04590977 -0.071038865 -0.15969442 -0.054524217 -0.26463133 -0.082228 -0.17487408 0.020415965 -0.12055331 0.11820537 -0.08117731 0.11843172 -0.15323852 0.20815593 -0.05345937 0.05007061 0.06876975 -0.09350818 0.012497914 0.28849754 -0.16753963 -0.10032264 -0.1498962 -0.09980861 -0.009237756 -0.06886613 0.21566762 -0.09366077 -0.04510814 -0.048628572 0.2989935 -0.05363347 0.12261709 -0.1513223 0.044852883 0.096502505 -0.11674163 0.18648498 0.13331895 -0.005947727 0.013713457 0.0886316 0.084035814 0.291354 0.09085363 -0.019440517 0.067776605 0.253277 -0.19798897 -0.1468229 0.06248721 0.12234379 0.019704223 0.024477353 -0.076674044 -0.077838995 -0.11513233 -0.05611123 -0.15158938 -0.2005204 -0.11111724 0.013877881 -0.103017636 0.016557563 -0.012146981 -0.0089911055 0.08294255 -0.053754628 0.15154491 -0.06919405 -0.016992696 -0.23250808 0.040293787 -0.08420854 -0.010138774 -0.118970625 0.21753946 0.02388715
6 0.036901202 -0.03811087 0.1311233 0.13646045 0.050653044 0.034114797 0.24545489 -0.10899148 0.05376716 0.053330608 0.045545977 -0.19044295 0.031208243 -0.058669563 -0.22020951 -0.21936633 0.04675029 0.04228835 0.024458306 -0.1687241 -0.068490066 -0.2187618 -0.100085795 -0.19199938 -0.03874531 -0.009642352 -0.23446068 0.03832602 -0.02149873 0.009090099 0.21677317 -0.06837191 -0.08154856 -0.12788925 -0.014600488 0.121802546 -0.07624228 -0.21203758 0.10047505 0.099042974 0.06918738 -0.35369673 0.10149219 -0.16581646 0.0037504015 -0.02053806 0.10091196 -0.13080508 0.06809509 0.04466765 -0.044425968 -0.032100316 0.08895023 0.039090235 -0.007176244 -0.143376 -0.124894775 0.17436612 -0.015827335 0.03850942 -0.22806329 0.22204156 -0.023737473 0.33961433 -0.04283619 0.12371557 -0.15143864 -0.21750699 -0.01011746 0.2933536 -0.16279964 0.043005113 -0.21649289 -0.084844835 0.12746066 -0.026380964 0.07868515 0.11058535 0.01039472 -0.17936084 0.086951196 0.057670776 0.23797503 -0.056621224 0.17166355 0.027144896 0.0023049912 0.0007840586 -0.02988158 0.036299825 0.099139415 -0.13656381 0.09015139 0.23286206 -0.008739437 0.15292321 0.21672134 -0.0058695525 -0.04185591 -0.13890114 0.020890888 0.23327012 -0.18415672 -0.08511868 -0.018002277 -0.10586715 0.06350116 -0.0052059977 -0.026910508 -0.10427961 -0.024432765 0.074855834 -0.032296453 0.019117355 -0.16597037 0.083192356 0.13892718 -0.07517849 0.013830019 -0.06457555 -0.038952813 -0.14623418 0.10485638 -0.019734805 0.105064005 0.12874076 0.16027977 -0.059965376
9 0.024711676 -0.06955025 0.089286886 0.19606511 -0.023942027 0.07359435 0.19785453 -0.08167643 0.01945451 0.07120301 -0.0035673815 -0.15214573 0.056539208 -0.007785525 -0.063340805 -0.18192889 0.044799283 -0.021157103 0.05858786 -0.03688851 -0.029228419 -0.18717247 -0.12562957 -0.08379697 -0.012827355 -0.025827322 -0.25976452 -0.040753245 0.010161664 0.06139455 0.16111243 -0.05111698 -0.0058436 -0.123039246 0.031979643 0.09661972 -0.023678355 -0.13683067 0.06785691 0.009141617 0.093912706 -0.2009612 0.0771929 -0.09817127 0.110828705 -0.021164032 0.042569257 -0.08956522 0.08078511 0.036897935 -0.043010313 -0.04886481 -0.0640537 -0.011406706 -0.15607002 -0.096309304 -0.14358169 0.07252418 -0.07565422 0.08617539 -0.1332854 0.14798096 -0.09557018 0.23703124 -0.048177414 0.07174683 -0.012903987 -0.13967435 0.006534912 0.2781255 -0.15852112 -0.04772009 -0.16851155 -0.08424761 0.04362619 -0.041054018 0.15235078 -0.014366146 -0.01801345 -0.09001498 0.20581135 -0.012410698 0.15927666 -0.1081461 0.08680491 0.064306974 -0.06945898 0.10932295 0.06384684 0.011850753 0.044844393 -0.0007530878 0.0819749 0.25648183 0.050342787 0.043176934 0.115760446 0.14284898 -0.13177513 -0.12753235 0.042546753 0.14845371 -0.056172002 -0.022069473 -0.049597688 -0.083530374 -0.042885337 -0.033965673 -0.08983267 -0.15092501 -0.07453387 0.033145867 -0.06840844 0.017431112 -0.06428462 0.022315932 0.10015036 -0.059287585 0.095478475 -0.060332216 -0.027257077 -0.18716982 0.06299981 -0.047823127 0.03313419 -0.027464457 0.18174937 -0.010403578
28 0.017759388 -0.08976072 0.083373286 0.23179002 -0.06394188 0.09375654 0.1949814 -0.07168902 0.003331799 0.08989187 -0.02862755 -0.1511693 0.066479065 0.020387402 0.009193244 -0.18158334 0.048477903 -0.052629046 0.082258955 0.010352712 -0.013567326 -0.19355437 -0.13866547 -0.03534951 -0.0016963182 -0.032536574 -0.30329812 -0.07566652 0.026348209 0.09039848 0.15377304 -0.049339723 0.029263252 -0.13762663 0.061334398 0.0915509 -0.0020862748 -0.11747254 0.06379734 -0.028976338 0.109348804 -0.146653 0.08305029 -0.07468553 0.17306426 -0.01342952 0.024968814 -0.08124389 0.100688726 0.034508426 -0.052675586 -0.06977112 -0.1355957 -0.03810715 -0.24625613 -0.089456685 -0.18103878 0.04432181 -0.11434294 0.11611812 -0.1029607 0.1401305 -0.14153343 0.22758226 -0.055661473 0.0638975 0.048603375 -0.11507144 0.0074585425 0.3013939 -0.17454003 -0.09676796 -0.15843429 -0.10086382 0.0035810366 -0.060720347 0.20211631 -0.072247826 -0.03429786 -0.07006023 0.2778315 -0.035672046 0.14255837 -0.14858083 0.05975209 0.090574495 -0.10965076 0.17420311 0.117122315 0.0067277686 0.022799157 0.063375056 0.087867565 0.300505 0.09021005 0.001739561 0.08946613 0.23133706 -0.18260446 -0.14298753 0.051705193 0.12671024 0.006792333 0.01038083 -0.066481724 -0.08488015 -0.101719975 -0.060152236 -0.13744763 -0.19576754 -0.11145583 0.02237085 -0.09711101 0.009466313 -0.019834721 0.00051584066 0.08841091 -0.060120933 0.14853452 -0.06391492 -0.018903906 -0.22428532 0.047349874 -0.07121135 0.00034701635 -0.0928419 0.21518219 0.012949493
7 0.036147546 -0.03387858 0.123903215 0.13613978 0.045469075 0.03439805 0.22979356 -0.096736744 0.049216744 0.05381643 0.043929473 -0.17934217 0.034487862 -0.053181924 -0.20222716 -0.2092841 0.047507185 0.03883138 0.028071677 -0.15363854 -0.059165712 -0.21210201 -0.10061507 -0.17538886 -0.039817914 -0.0114029925 -0.22959363 0.028958213 -0.01569868 0.012701243 0.20437543 -0.06466444 -0.078681916 -0.12201377 -0.009451786 0.10731057 -0.069268405 -0.19642076 0.09818761 0.088709965 0.06626255 -0.3311088 0.0935208 -0.15814154 0.0064177252 -0.013463911 0.09384416 -0.12620328 0.070389286 0.04404151 -0.045993354 -0.034982994 0.07810095 0.039990455 -0.012484759 -0.13652904 -0.12004451 0.15529369 -0.024702998 0.041786045 -0.21021019 0.2106045 -0.025367368 0.31944552 -0.047939777 0.11965234 -0.13158707 -0.20055504 -0.008199976 0.2828317 -0.15948948 0.03374405 -0.20805518 -0.07904184 0.12305068 -0.026601179 0.08535454 0.09575984 0.0059723607 -0.16702677 0.08903525 0.048669145 0.2258937 -0.060894076 0.15945156 0.031601317 -0.0012596886 0.01605416 -0.02063207 0.03501322 0.09161546 -0.122057475 0.09304396 0.22902787 -0.009148204 0.13786043 0.20312203 0.0034144558 -0.04869163 -0.13608788 0.018478785 0.21881655 -0.17483805 -0.07788553 -0.015855232 -0.10202739 0.051779795 -0.009376637 -0.028401874 -0.10320717 -0.028082386 0.06848487 -0.030455746 0.022591284 -0.14870363 0.07222333 0.13259172 -0.06953983 0.023324475 -0.06753882 -0.0315837 -0.1472281 0.09812792 -0.021187035 0.09271241 0.11315304 0.15140282 -0.0584405
8 0.030002967 -0.050461352 0.10973442 0.1608262 0.019961482 0.05175591 0.22631188 -0.092124954 0.034867954 0.06395299 0.029081635 -0.16984019 0.04133018 -0.042337127 -0.15397678 -0.20623343 0.0331727 0.019688774 0.041054137 -0.12231103 -0.05656488 -0.20332336 -0.120833166 -0.14545874 -0.022900289 -0.029401705 -0.23204727 0.010985832 -0.018475648 0.0191216 0.18806843 -0.06362034 -0.053605396 -0.12827954 0.0006962484 0.11112651 -0.06459097 -0.17258637 0.09661297 0.06160851 0.08188171 -0.28973627 0.09294103 -0.13373804 0.044993803 -0.021303825 0.07997934 -0.114144824 0.0728816 0.04580053 -0.046925854 -0.03829862 0.025474003 0.024033658 -0.062129296 -0.11542878 -0.11960779 0.13469346 -0.03849203 0.05958918 -0.19041756 0.18048932 -0.044133093 0.2877506 -0.044225436 0.098926514 -0.09850296 -0.18831521 0.0004703005 0.27931237 -0.14832531 0.009800902 -0.19523692 -0.07836335 0.08851149 -0.023792513 0.10412425 0.06364872 0.0072256876 -0.13547221 0.1249535 0.030911196 0.20394066 -0.074076 0.12552893 0.02548671 -0.026365254 0.03351658 -0.0023592247 0.034779478 0.06939867 -0.086367786 0.09314355 0.24177262 0.016131371 0.10486073 0.17705536 0.046419177 -0.07577076 -0.12084412 0.02312814 0.19354035 -0.13288224 -0.06326179 -0.025779577 -0.09290911 0.023559611 -0.017113445 -0.046413835 -0.11359854 -0.033639617 0.057342686 -0.044934623 0.017618459 -0.11862596 0.061539385 0.11482868 -0.064154334 0.04517654 -0.061508905 -0.031952556 -0.15661795 0.086023845 -0.018353932 0.07839374 0.06785942 0.16029118 -0.042402156
20 0.022912385 -0.074730456 0.09246256 0.19814485 -0.017213743 0.07142464 0.20520326 -0.07859074 0.01899639 0.066699535 0.006136569 -0.1535187 0.05653324 -0.008995146 -0.074217334 -0.18881927 0.041311536 -0.016674358 0.05814572 -0.049998686 -0.03679272 -0.18990247 -0.12746392 -0.08963582 -0.01502474 -0.032619156 -0.25272483 -0.030201899 0.0039793337 0.05432721 0.16407055 -0.053685535 -0.009880156 -0.12453765 0.029287226 0.10100403 -0.029242404 -0.14080204 0.07734322 0.01777465 0.09390613 -0.22058344 0.08457979 -0.104478404 0.11230264 -0.017954828 0.047061775 -0.09527611 0.08501649 0.04374878 -0.04536489 -0.049119893 -0.047251917 -0.008389282 -0.14955753 -0.098681584 -0.1393729 0.08355962 -0.069606766 0.09053409 -0.13971831 0.15164864 -0.08375159 0.24604544 -0.04609884 0.078479744 -0.022509301 -0.1521317 0.00498779 0.28262645 -0.15984869 -0.038026057 -0.17000082 -0.087266445 0.045686238 -0.04278387 0.14905682 -0.0020118598 -0.014342504 -0.098532386 0.19882463 -0.0060247765 0.16914035 -0.112337455 0.09370209 0.051989917 -0.06990063 0.0957104 0.054446954 0.01837788 0.04878615 -0.009378128 0.084069364 0.26278815 0.04563581 0.056276992 0.12554659 0.13681498 -0.12409657 -0.1301006 0.03613403 0.16368008 -0.06868309 -0.02631628 -0.04681244 -0.09073555 -0.035642568 -0.030361531 -0.08892943 -0.14997223 -0.06985889 0.038652785 -0.065375045 0.018336117 -0.07390779 0.03092545 0.09827117 -0.05631514 0.0898358 -0.058967978 -0.027359791 -0.18394461 0.06620177 -0.047397155 0.036609426 -0.015604306 0.17882018 -0.01787353
5 0.031061957 -0.042738065 0.11331359 0.14526284 0.0317615 0.040908083 0.22088847 -0.09811292 0.03880715 0.05366729 0.029616335 -0.17638454 0.032915954 -0.042548075 -0.17630708 -0.20035996 0.041761264 0.020952791 0.029969933 -0.1303346 -0.055465914 -0.2031131 -0.10242987 -0.15751815 -0.031100295 -0.019037174 -0.22801594 0.01363527 -0.014554297 0.02025634 0.19910875 -0.06302681 -0.06321065 -0.12551433 -0.004358202 0.110567994 -0.06272534 -0.18406023 0.09445887 0.072623685 0.07226168 -0.30061623 0.09439497 -0.14348158 0.029302932 -0.01788839 0.08471413 -0.12143537 0.07239279 0.044831023 -0.042493746 -0.037444044 0.049241822 0.027841212 -0.038891245 -0.12904552 -0.1219921 0.14112243 -0.033370383 0.051476628 -0.19177614 0.19145195 -0.03706725 0.30103955 -0.040440857 0.11114095 -0.108640455 -0.18966386 -0.003919598 0.27826464 -0.14859354 0.021387098 -0.19364633 -0.082738966 0.10576124 -0.025925666 0.092344955 0.07575763 0.006426143 -0.14965323 0.10653969 0.03470413 0.20537539 -0.06943577 0.13756205 0.033169627 -0.02000622 0.027397433 -0.005403919 0.027527386 0.081118755 -0.09613249 0.08354784 0.23403959 0.0028484385 0.117079325 0.18084008 0.031123234 -0.06256518 -0.13065581 0.025729839 0.20266366 -0.15024348 -0.06684807 -0.022544863 -0.096469894 0.030868698 -0.013049758 -0.04703767 -0.11436415 -0.031218847 0.06464992 -0.037117597 0.0184451 -0.13259768 0.06615046 0.124895 -0.06737308 0.03642956 -0.060850397 -0.034526795 -0.15159419 0.08710926 -0.021911787 0.08406448 0.08787181 0.15487342 -0.04299586
11 0.037016645 -0.028091133 0.12862416 0.12906596 0.05058269 0.029340524 0.23227373 -0.10210369 0.05045839 0.04736734 0.048592675 -0.17848228 0.02569172 -0.06014057 -0.22023837 -0.20486362 0.041196503 0.046645343 0.02245744 -0.16623902 -0.06386398 -0.21159191 -0.09410021 -0.18543735 -0.036059413 -0.013707554 -0.21910599 0.034226127 -0.019294009 0.0006197195 0.20709026 -0.06727987 -0.08020599 -0.12170953 -0.01964858 0.11199421 -0.07531946 -0.20167983 0.102522336 0.10078337 0.057830773 -0.34262416 0.091923274 -0.16154207 -0.006903401 -0.015080032 0.09508481 -0.1274455 0.064557076 0.044855416 -0.04425821 -0.023189258 0.095957875 0.047730707 0.0030395922 -0.13495047 -0.11189214 0.16891806 -0.009389459 0.040400807 -0.21829699 0.21034211 -0.011567596 0.32232207 -0.043733127 0.11844615 -0.15118812 -0.20618826 -0.008844786 0.27266043 -0.14886895 0.047979403 -0.20548338 -0.07625965 0.12729022 -0.020069625 0.07053076 0.11239337 0.010081912 -0.17137086 0.07091194 0.057716362 0.22836079 -0.050246425 0.16437249 0.02104251 0.008462273 -0.0037029653 -0.03404355 0.03564114 0.09831827 -0.13540496 0.09125995 0.21615721 -0.013091393 0.14776869 0.20722371 -0.0134193115 -0.031764295 -0.13268629 0.017252458 0.22251788 -0.18606183 -0.087601155 -0.015107736 -0.09657758 0.0664378 -0.004531274 -0.02189847 -0.08971615 -0.020533139 0.07399203 -0.027564663 0.026052106 -0.15786569 0.08222389 0.12781347 -0.07278767 0.006290097 -0.065307416 -0.033890948 -0.13852118 0.10248145 -0.01375911 0.10328911 0.13227889 0.14748707 -0.064793445
26 0.01685798 -0.08325809 0.079963885 0.23139805 -0.061047543 0.092525564 0.18851474 -0.07396963 0.00877334 0.08511537 -0.020633554 -0.1521295 0.07339664 0.013828076 -0.0021858886 -0.18416373 0.046505008 -0.046546806 0.08038688 0.008705108 -0.009126907 -0.19461922 -0.13244978 -0.04356533 -0.0009350899 -0.029758856 -0.299631 -0.076325506 0.031940598 0.09495266 0.16192305 -0.042235907 0.030924654 -0.1339157 0.06173917 0.09324266 -0.00010713667 -0.12414208 0.06598116 -0.022719963 0.10698351 -0.15445113 0.07890394 -0.075788766 0.17315128 -0.012473592 0.027376356 -0.086263075 0.09571622 0.034355476 -0.05204955 -0.062290464 -0.12801161 -0.04113985 -0.23287661 -0.08604788 -0.17220227 0.045377932 -0.11483274 0.112413295 -0.09829542 0.13595441 -0.13429452 0.22494712 -0.050027356 0.06505554 0.047929116 -0.111166835 0.015624772 0.29693943 -0.17355227 -0.08603972 -0.15707096 -0.09916702 0.010923169 -0.057677045 0.19691584 -0.06965943 -0.03956848 -0.06937519 0.27088147 -0.03651454 0.14142285 -0.14344318 0.05910916 0.083012685 -0.108516805 0.16509776 0.108932056 0.007084986 0.027514005 0.054507907 0.08544754 0.2892006 0.079855174 0.0037202598 0.089733586 0.22648916 -0.17665118 -0.14451282 0.0553472 0.13161884 0.00038825543 0.004488725 -0.06827038 -0.087163456 -0.093337454 -0.05538638 -0.13292782 -0.18853448 -0.1039057 0.02126221 -0.09434115 0.009631829 -0.031983357 -0.0012211909 0.08883916 -0.05874705 0.13935678 -0.06414714 -0.020366538 -0.22460051 0.048731748 -0.07246636 0.0009909084 -0.09243628 0.21209328 0.012747117
31 0.023107229 -0.085856445 0.085091956 0.2121379 -0.041742496 0.08412319 0.19595325 -0.075887874 0.011579272 0.07817111 -0.017041728 -0.15260199 0.0626124 0.008002615 -0.030457769 -0.18210733 0.046183746 -0.03471175 0.06557719 -0.01390459 -0.024393296 -0.19159833 -0.1289209 -0.05984311 -0.010493977 -0.032111578 -0.28009066 -0.05513605 0.013316012 0.07656637 0.15759902 -0.050875477 0.0077884165 -0.13007762 0.046449315 0.0965087 -0.014428952 -0.12693724 0.07076297 -0.013371665 0.09919139 -0.18025617 0.085167475 -0.088514164 0.14723238 -0.014694767 0.037795413 -0.09293455 0.08831176 0.03895723 -0.04835892 -0.05925341 -0.09802928 -0.028417783 -0.19572248 -0.097893685 -0.16406716 0.059213623 -0.09885808 0.100909255 -0.12013451 0.14019845 -0.115504995 0.23460394 -0.047076553 0.06723516 0.01108605 -0.12621666 0.0084842285 0.28577584 -0.16865765 -0.0675822 -0.1628013 -0.09371773 0.026295919 -0.0492035 0.17779422 -0.042383 -0.02918609 -0.082920104 0.24279629 -0.027588902 0.147999 -0.12936962 0.07776921 0.07333115 -0.090290666 0.13427804 0.08740703 0.0073837196 0.034412414 0.031024048 0.08484805 0.2811801 0.0653755 0.023611479 0.099638104 0.1866452 -0.15967801 -0.13705915 0.04686531 0.14094603 -0.026970802 -9.39188e-05 -0.05529655 -0.087532766 -0.066367656 -0.04421804 -0.11696055 -0.1703775 -0.09223521 0.025971116 -0.080853365 0.011846408 -0.04939487 0.0153387375 0.09528634 -0.05510026 0.120797366 -0.059543572 -0.025204418 -0.20309108 0.0531407 -0.0571576 0.019481225 -0.05649721 0.19420746 0.0023725352
29 0.022059998 -0.071139686 0.08944416 0.20182829 -0.032827664 0.07499921 0.1917893 -0.081044495 0.017642735 0.0710858 -0.004105523 -0.14895442 0.0549037 0.0011461899 -0.051845845 -0.18407018 0.041684385 -0.02358021 0.05941539 -0.029303499 -0.02972822 -0.1882122 -0.124603786 -0.07069526 -0.009296622 -0.029885862 -0.2621602 -0.041101452 0.0116827125 0.062069073 0.15603633 -0.051030897 -0.00052347034 -0.12973371 0.03239634 0.09233865 -0.022104068 -0.13687702 0.072032936 0.0071863895 0.09550964 -0.19346489 0.08410683 -0.092725776 0.11759481 -0.016950993 0.04509923 -0.090061806 0.087414846 0.037000243 -0.045505445 -0.05046997 -0.064254835 -0.018207507 -0.16057783 -0.088879466 -0.14112234 0.070569456 -0.076440856 0.09024294 -0.12444259 0.14212382 -0.09573104 0.23156065 -0.051129304 0.07313436 -0.007745778 -0.13837983 0.0046940297 0.27519014 -0.15852141 -0.051618632 -0.15947226 -0.082556866 0.035313852 -0.046019662 0.1562426 -0.021439709 -0.021846205 -0.08568453 0.2101231 -0.013920856 0.15207802 -0.11324309 0.077721015 0.06533097 -0.07570913 0.11279899 0.06779032 0.00823636 0.040921856 0.005988083 0.0864139 0.2590582 0.057216473 0.042307217 0.11485292 0.15028632 -0.13453 -0.12507051 0.04067573 0.14190252 -0.04625775 -0.019832289 -0.04771483 -0.08855475 -0.05191392 -0.04120589 -0.10175352 -0.15556835 -0.07620285 0.032247823 -0.07418497 0.012568213 -0.060097635 0.021931253 0.090684645 -0.057966035 0.100619964 -0.06470482 -0.024811925 -0.18543285 0.054512113 -0.052038576 0.031868882 -0.030819524 0.1783214 -0.011661678
25 0.019614212 -0.080458164 0.08202994 0.22510688 -0.060340114 0.08489349 0.18538286 -0.07191753 0.0046673752 0.08477643 -0.018713254 -0.14569613 0.067040764 0.016220957 -0.009742696 -0.18314062 0.04262903 -0.046601184 0.080606095 -0.0005371695 -0.009737453 -0.19770959 -0.13148738 -0.05205109 -0.00611513 -0.03087977 -0.301935 -0.07889851 0.029131103 0.08955145 0.16400114 -0.043858167 0.031639587 -0.13444068 0.055622466 0.09466583 -0.0068320525 -0.123793535 0.05881488 -0.01905193 0.10640235 -0.15666832 0.07674793 -0.07418221 0.16543768 -0.008112496 0.029892225 -0.081125155 0.09830409 0.03792098 -0.04805697 -0.062560186 -0.115347944 -0.034161072 -0.22671974 -0.08294534 -0.16793783 0.04907796 -0.10932467 0.11138933 -0.10293772 0.13950637 -0.1318406 0.22410002 -0.05026216 0.064276904 0.03901483 -0.11587218 0.011820637 0.2854643 -0.16834266 -0.07886577 -0.15146232 -0.089471035 0.0113402065 -0.056351736 0.18612203 -0.062925816 -0.03671308 -0.074804805 0.26040682 -0.02597469 0.13379608 -0.13809973 0.06543916 0.080531344 -0.10047942 0.15397844 0.1042448 0.0086429175 0.02777785 0.04902808 0.084523164 0.2829509 0.082762 0.007450006 0.09073853 0.21740015 -0.17207986 -0.13775873 0.053202596 0.12947038 -0.0073822644 -0.002433423 -0.06628916 -0.08258143 -0.08699782 -0.054634098 -0.13169435 -0.1867599 -0.09925167 0.020466847 -0.0886531 0.012417115 -0.030238118 -0.0023607523 0.08723833 -0.05770269 0.13492952 -0.065653116 -0.014217013 -0.21425255 0.051397476 -0.06643841 0.01081644 -0.0830885 0.20544541 0.0071766293
15 0.02068848 -0.0760975 0.094179094 0.20081577 -0.029736623 0.074144706 0.20009772 -0.07941286 0.021009792 0.07530916 -0.0030191592 -0.15869302 0.05868066 -0.004193332 -0.059669733 -0.18478529 0.04072073 -0.022341449 0.062316563 -0.032798424 -0.02715907 -0.19060169 -0.12433944 -0.07694881 -0.007228276 -0.02833501 -0.26401144 -0.04593554 0.012919255 0.06616197 0.16345033 -0.04630651 7.432356e-05 -0.13183321 0.040239602 0.09508686 -0.022415295 -0.13808745 0.075396284 0.00816994 0.093408644 -0.19801548 0.07959688 -0.09880198 0.12452195 -0.014220215 0.046653666 -0.0948957 0.08573657 0.037727322 -0.049753636 -0.056904454 -0.070550755 -0.018535344 -0.16726206 -0.09726802 -0.1510162 0.069444425 -0.0824031 0.08765082 -0.12657504 0.14904848 -0.093884036 0.23868972 -0.047450185 0.0782826 -0.006845589 -0.1367381 0.0103300875 0.27537382 -0.15649903 -0.05079395 -0.1622881 -0.0903595 0.035104662 -0.042590752 0.15517302 -0.020928895 -0.024246717 -0.091164626 0.2123785 -0.013375118 0.15963468 -0.11625325 0.08494499 0.06455887 -0.077645436 0.11653333 0.06972901 0.015093705 0.038969412 0.0066481363 0.08465435 0.26265353 0.057666197 0.03597803 0.114555106 0.15072393 -0.13585812 -0.1284303 0.04476147 0.14860657 -0.047781195 -0.0156862 -0.050232 -0.08492547 -0.05252185 -0.03919697 -0.09987851 -0.15340447 -0.07864595 0.036622405 -0.07240535 0.018567568 -0.056714263 0.01961274 0.09409949 -0.057420548 0.101455204 -0.060072947 -0.022686167 -0.1902298 0.056288633 -0.05164026 0.03134527 -0.033479303 0.17876731 -0.011306178
27 0.017492056 -0.08922989 0.07746 0.22981516 -0.061207164 0.09371037 0.18313776 -0.07312116 0.0024823628 0.0809708 -0.029682988 -0.14557596 0.07129646 0.018102324 0.013293591 -0.1741151 0.0501172 -0.051358957 0.08114124 0.024995988 -0.008931155 -0.18921617 -0.13840504 -0.036062434 -0.00052870525 -0.029538672 -0.29614067 -0.07960254 0.026593246 0.09747473 0.15206565 -0.04460691 0.032637056 -0.13109031 0.062457178 0.08851112 -0.0009169241 -0.11491818 0.060844142 -0.036954746 0.11147799 -0.13925126 0.07997893 -0.071428955 0.17799477 -0.017215662 0.020957083 -0.08317126 0.098890565 0.03625841 -0.04983429 -0.06618751 -0.14391379 -0.04537931 -0.24674211 -0.08298713 -0.17388628 0.033347677 -0.11847509 0.11624423 -0.095917806 0.12540367 -0.13909806 0.21279666 -0.048947353 0.059497412 0.057477657 -0.10524579 0.016108664 0.29356536 -0.16818444 -0.094511494 -0.15588148 -0.09759673 -8.906447e-05 -0.06344525 0.20041864 -0.0742407 -0.04185685 -0.06182432 0.28376946 -0.045775995 0.13424844 -0.14957061 0.056164023 0.087850496 -0.117599905 0.16938947 0.1194457 -0.001308816 0.018221408 0.07166599 0.0797138 0.29383326 0.08934684 -0.0033013504 0.08136517 0.23526117 -0.18731795 -0.14186597 0.058812536 0.1269049 0.009784652 0.012787489 -0.07041836 -0.087773934 -0.100020595 -0.053463377 -0.1332239 -0.19538727 -0.109038405 0.021893471 -0.09105849 0.014432344 -0.021655416 -0.0069759544 0.08204718 -0.05252556 0.14351352 -0.06595589 -0.018623618 -0.22067733 0.040839955 -0.071630314 -0.001164725 -0.10262506 0.2088735 0.015510839
19 0.023241682 -0.082240075 0.08623113 0.21585633 -0.041790545 0.084349796 0.19485864 -0.078475535 0.012602504 0.07749955 -0.015524022 -0.15414003 0.06693229 0.00567487 -0.026866844 -0.17924349 0.045518626 -0.034373842 0.06609936 -0.00904678 -0.02015948 -0.18281344 -0.12540029 -0.0577059 -0.0048668156 -0.026363993 -0.27335697 -0.05519484 0.018095244 0.0775836 0.15438507 -0.045131497 0.008136328 -0.13061246 0.047667667 0.08998229 -0.0149868205 -0.12998097 0.06973188 -0.007122047 0.101885125 -0.17412074 0.08563508 -0.09191177 0.13987312 -0.020957828 0.034376714 -0.09170519 0.08907077 0.03800107 -0.044008404 -0.063058555 -0.09684413 -0.02571119 -0.19899511 -0.0886502 -0.15997113 0.055890393 -0.09816404 0.10279587 -0.11842131 0.13707082 -0.11466207 0.2306973 -0.05070796 0.06713852 0.011953149 -0.12510154 0.01276045 0.28979635 -0.1641187 -0.07007035 -0.15835507 -0.09045411 0.02450774 -0.05438735 0.17946188 -0.039803326 -0.026508557 -0.07642242 0.23706359 -0.028011067 0.1551669 -0.13055728 0.076253094 0.07864472 -0.08967586 0.13657582 0.089423984 0.011106993 0.036039367 0.03505317 0.08543808 0.27916437 0.07027786 0.022072447 0.10439997 0.18339491 -0.15705223 -0.13209644 0.043122116 0.1458715 -0.027869407 -0.0027404344 -0.05444322 -0.084262475 -0.066389285 -0.04253648 -0.115673386 -0.16939683 -0.089517914 0.03254319 -0.08501182 0.01590674 -0.04367115 0.010084356 0.09270019 -0.05377945 0.1195987 -0.062406197 -0.02542566 -0.2036983 0.054709475 -0.061984222 0.01837942 -0.057753954 0.19006467 0.0015362476
18 0.026668578 -0.05673818 0.10693989 0.16741793 0.009235563 0.05606135 0.21611555 -0.0907902 0.03327458 0.060811568 0.024672333 -0.16317728 0.04317271 -0.028355483 -0.13339876 -0.1954095 0.033619452 0.007855992 0.04546964 -0.097321294 -0.05224898 -0.1960752 -0.115446456 -0.12343501 -0.019956943 -0.027679758 -0.23405117 -0.002311544 -0.012123647 0.02703258 0.1756733 -0.05510614 -0.039307453 -0.123198725 0.011874127 0.104718685 -0.05173941 -0.16039513 0.0812462 0.049183026 0.08251537 -0.27026704 0.091438256 -0.12669742 0.06097673 -0.014040322 0.06723393 -0.108724415 0.07517464 0.041730795 -0.04083449 -0.039328136 0.012201576 0.01867393 -0.0796899 -0.10852997 -0.122665405 0.12150504 -0.044987813 0.06669631 -0.16839322 0.17376873 -0.0528586 0.27193955 -0.04689084 0.088359475 -0.079718865 -0.1734601 0.0009607703 0.26399276 -0.14823423 -0.004172379 -0.1847521 -0.07680941 0.07578316 -0.024939783 0.10998346 0.045628168 0.0019526363 -0.1187672 0.1417601 0.016932521 0.18772697 -0.07981714 0.113270216 0.032814678 -0.03383454 0.049372114 0.01387753 0.02215878 0.067899376 -0.066808194 0.08816409 0.23711425 0.025340095 0.08801369 0.15538763 0.06353756 -0.08907123 -0.119480394 0.024937496 0.1803908 -0.11864889 -0.05480281 -0.030239891 -0.09157267 0.00551847 -0.01784361 -0.058389653 -0.1245277 -0.044210218 0.053867213 -0.050028957 0.02171164 -0.1064236 0.05048011 0.10744382 -0.061436474 0.05192817 -0.0618885 -0.032875676 -0.15621056 0.073445976 -0.02951607 0.06571927 0.04797571 0.1574485 -0.03268983
10 0.02000492 -0.072837904 0.095325194 0.20040222 -0.02847645 0.07635373 0.20159698 -0.079425976 0.020127505 0.07524225 -0.0047555063 -0.1566302 0.053016454 -0.0014410135 -0.064291805 -0.18599035 0.044676647 -0.023852406 0.0666775 -0.0407963 -0.02645699 -0.19687037 -0.1302121 -0.085357554 -0.013347788 -0.030500872 -0.27147767 -0.041041996 0.013379675 0.061905 0.1710914 -0.053901773 0.00015441026 -0.13167202 0.031450957 0.09970747 -0.028595347 -0.14615254 0.07334739 0.009012544 0.09428555 -0.20520706 0.08691114 -0.09635365 0.12036515 -0.015399314 0.04669465 -0.093015976 0.08739721 0.042535253 -0.04524207 -0.05282238 -0.062701166 -0.0120410435 -0.16524155 -0.096609935 -0.15162499 0.07801468 -0.08463315 0.088111386 -0.13757214 0.15788783 -0.100013115 0.24578533 -0.04940015 0.07918924 -0.015501959 -0.14491728 0.003635596 0.28668872 -0.15989374 -0.04708948 -0.17504838 -0.0894483 0.040625207 -0.048357625 0.155188 -0.011803451 -0.020552646 -0.09565803 0.2118959 -0.010002926 0.15923068 -0.117148325 0.087524846 0.06158445 -0.07363582 0.1159389 0.064901315 0.01504429 0.04172277 -0.0018359507 0.08845126 0.26547223 0.05265463 0.047678065 0.12316842 0.15500236 -0.13317059 -0.13530254 0.04056175 0.15786202 -0.05749659 -0.022737838 -0.047165763 -0.08915082 -0.0520307 -0.036294255 -0.09998863 -0.16085431 -0.07695948 0.038994186 -0.0702334 0.018915763 -0.062046044 0.025900638 0.09747607 -0.057745133 0.097708955 -0.06094311 -0.024860121 -0.1966752 0.064015284 -0.0543618 0.034291167 -0.02714944 0.19057079 -0.008751607
13 0.02326108 -0.04710441 0.10701621 0.14418031 0.024563467 0.042099312 0.21102822 -0.08805943 0.031795803 0.059521202 0.030099122 -0.15843484 0.036558807 -0.03609228 -0.15369779 -0.19708288 0.036421582 0.016761154 0.039742384 -0.113960184 -0.057877358 -0.192033 -0.10407986 -0.14286537 -0.03121255 -0.021151422 -0.22357626 0.008446567 -0.0122074615 0.020262161 0.1842774 -0.059021346 -0.04959167 -0.118036285 -0.002016971 0.10508006 -0.06035202 -0.16808099 0.089813896 0.060160354 0.07243567 -0.279088 0.087197475 -0.12655014 0.03803836 -0.017138472 0.076602675 -0.10888784 0.06605725 0.03953386 -0.045768898 -0.030495048 0.031507067 0.02146493 -0.05738072 -0.115840904 -0.116405375 0.13107923 -0.030597301 0.05852557 -0.17920484 0.17513129 -0.045614727 0.27586868 -0.040675126 0.09752778 -0.09534935 -0.17981938 -0.0022462925 0.26103637 -0.1410753 0.012338637 -0.18614244 -0.07312204 0.08642945 -0.025381796 0.09339575 0.061415162 0.0068603586 -0.13614805 0.11256788 0.02785151 0.18915194 -0.06619536 0.1254399 0.026547616 -0.023942057 0.029705388 -0.00170784 0.030144991 0.067728646 -0.085832395 0.079832256 0.22700702 0.015560683 0.10715348 0.16537817 0.041504044 -0.06791123 -0.11722863 0.02539726 0.18889497 -0.13199888 -0.061941918 -0.020041833 -0.088841856 0.025087928 -0.011282065 -0.041497815 -0.10626335 -0.031930096 0.05432874 -0.042855456 0.019986475 -0.11890706 0.06036146 0.10924885 -0.05921035 0.04395863 -0.059142802 -0.031844094 -0.15107474 0.08376832 -0.023125092 0.07255948 0.06811082 0.152224 -0.03799856
16 0.022923168 -0.079930596 0.07843282 0.21613838 -0.04727828 0.081454635 0.18308046 -0.07695195 0.010893346 0.078192554 -0.01899542 -0.14637983 0.06256928 0.0096429195 -0.017131047 -0.1732998 0.043182015 -0.03683494 0.07103964 -0.0052007535 -0.013701599 -0.18038756 -0.12828249 -0.05158175 -0.0029646538 -0.028880674 -0.27006724 -0.06316787 0.02086978 0.07776814 0.14657958 -0.042507853 0.018878715 -0.13107368 0.053340167 0.090463735 -0.009686175 -0.11973095 0.059908632 -0.012614135 0.10122747 -0.16078658 0.08178158 -0.080540396 0.15041053 -0.017129198 0.033354405 -0.08672468 0.0867589 0.03484628 -0.043403752 -0.06482747 -0.108655654 -0.029919092 -0.20622835 -0.08889669 -0.1585909 0.045601968 -0.098391026 0.10523384 -0.10957843 0.13342154 -0.12105775 0.21793352 -0.045466967 0.06579817 0.023734096 -0.11507703 0.010810166 0.2776681 -0.16372466 -0.07307877 -0.15476416 -0.08700625 0.019795071 -0.05552151 0.18098111 -0.049259357 -0.035009794 -0.06729002 0.24576649 -0.030166078 0.14206903 -0.12650672 0.068940714 0.0797188 -0.09659589 0.14205292 0.093486875 0.0019104299 0.031065969 0.044531964 0.08401011 0.26979828 0.07312611 0.012480432 0.08830474 0.19370517 -0.15897124 -0.13080017 0.04645609 0.13205451 -0.020432767 0.0016995199 -0.06111069 -0.08357215 -0.07731762 -0.047093187 -0.116455644 -0.17290667 -0.0920743 0.023213882 -0.08497232 0.018518722 -0.037468858 0.0069309203 0.08507894 -0.051572774 0.12204778 -0.06333853 -0.018552141 -0.20091225 0.05049686 -0.060040683 0.013859199 -0.07042507 0.19456919 0.0013362102
17 0.034409042 -0.025893549 0.1281619 0.1080428 0.069924094 0.01796892 0.23510234 -0.10375021 0.05824638 0.042192526 0.0552437 -0.18417053 0.026024755 -0.06885743 -0.2430642 -0.20900665 0.03974005 0.056583047 0.0143102715 -0.18510573 -0.06772611 -0.20721023 -0.091767184 -0.20176122 -0.041087117 -0.005339326 -0.20448506 0.05133614 -0.027734082 -0.01189824 0.20916167 -0.062493864 -0.100532904 -0.116913676 -0.02183618 0.11663284 -0.07928712 -0.21504468 0.102940015 0.118712835 0.053550623 -0.36670354 0.09282205 -0.16990787 -0.029743372 -0.017182425 0.103678405 -0.1319835 0.062087078 0.043724474 -0.0359167 -0.02612206 0.11996518 0.054241057 0.03949556 -0.13887227 -0.10423232 0.18526788 -0.005783187 0.026732804 -0.22924303 0.22359172 0.0021880704 0.33413583 -0.039828856 0.13338159 -0.17534325 -0.22039485 -0.0063710273 0.27990934 -0.15524252 0.06762542 -0.21440624 -0.07326756 0.13909136 -0.01707777 0.0580074 0.12939747 0.012813231 -0.18429399 0.048486203 0.069432944 0.2428246 -0.04387387 0.17575932 0.017166348 0.023886366 -0.01879002 -0.053020585 0.04097533 0.10827398 -0.16208944 0.08927191 0.21148196 -0.028283251 0.16497934 0.2303816 -0.037300177 -0.019315666 -0.13537242 0.010803997 0.23700196 -0.21496613 -0.09434571 -0.011219706 -0.09958819 0.07985608 0.006769605 -0.013474441 -0.08133451 -0.003521532 0.079725176 -0.022443594 0.019587265 -0.17871244 0.09419241 0.13836288 -0.0790871 -0.00909926 -0.063895814 -0.03666916 -0.12900387 0.10518734 -0.009263894 0.115380704 0.15986308 0.1437629 -0.07292655
23 0.024620332 -0.0819354 0.08617212 0.21411021 -0.040823776 0.08362282 0.20444839 -0.08142366 0.014974054 0.07666989 -0.014229751 -0.15534276 0.06264272 0.00061962416 -0.036473818 -0.18880598 0.047146916 -0.026329562 0.06322379 -0.020913428 -0.025072552 -0.19050844 -0.13109006 -0.06310926 -0.008617361 -0.032044973 -0.2746435 -0.055973932 0.016226036 0.070899285 0.16278131 -0.050307624 0.0039332043 -0.13533333 0.044907633 0.09149174 -0.020847073 -0.13277468 0.07160289 -0.002408397 0.10442181 -0.19112001 0.08692386 -0.09816733 0.14197266 -0.019936321 0.040984154 -0.09407344 0.08698196 0.04165752 -0.051748216 -0.061156344 -0.08664946 -0.021443643 -0.19231418 -0.09354997 -0.16203605 0.060342226 -0.09253177 0.100764796 -0.12733988 0.14931355 -0.11021917 0.23941441 -0.052879926 0.07023584 0.0043086526 -0.13464735 0.0028395047 0.2928648 -0.16690205 -0.06426089 -0.16377887 -0.092716575 0.026761103 -0.051442858 0.17756948 -0.03359304 -0.023701912 -0.08695429 0.2369561 -0.020948274 0.15615976 -0.12362345 0.07913634 0.071477436 -0.08729976 0.13346383 0.08285204 0.01229334 0.036649078 0.022535045 0.08866562 0.27551782 0.062054653 0.02903493 0.10828047 0.17448941 -0.14974296 -0.13103545 0.04097261 0.14696915 -0.036144078 -0.007285759 -0.053611763 -0.09076534 -0.06634403 -0.039517753 -0.11253885 -0.17109361 -0.08693337 0.030991897 -0.07813492 0.018054567 -0.04983866 0.015435206 0.09658404 -0.059288785 0.11378189 -0.06288807 -0.022735894 -0.20324354 0.054072797 -0.060220562 0.027965505 -0.05135546 0.18926741 -0.002969915
22 0.023443453 -0.052095927 0.10828684 0.16083992 0.020216487 0.052889686 0.2124739 -0.084934734 0.032382943 0.060963854 0.029870164 -0.16480783 0.03719155 -0.036103133 -0.14995208 -0.19974528 0.034550354 0.015456607 0.04264317 -0.11063385 -0.055470966 -0.19363374 -0.11162818 -0.13295124 -0.027306879 -0.018595418 -0.22891584 0.0074556046 -0.011381501 0.02615975 0.18105997 -0.05539424 -0.045936216 -0.11893643 0.00750601 0.10621236 -0.055469736 -0.16590397 0.08271474 0.05815168 0.07353023 -0.27803257 0.086357035 -0.1296727 0.047683362 -0.01986589 0.073318556 -0.10726557 0.07063321 0.045089427 -0.0465079 -0.035685036 0.023579475 0.021343876 -0.064109 -0.11402014 -0.120334074 0.12890781 -0.035195183 0.059488375 -0.17468333 0.17630304 -0.050690584 0.2784253 -0.041454434 0.09502429 -0.08455226 -0.17381757 0.00033186952 0.2695341 -0.14695977 0.007657552 -0.18878822 -0.077888235 0.08688763 -0.028593343 0.101785526 0.053749606 -1.0472373e-05 -0.12731664 0.12795323 0.023435414 0.1926338 -0.07563017 0.12733577 0.02997304 -0.027146718 0.045377873 0.004888284 0.029817186 0.06865364 -0.07628964 0.08907374 0.23239481 0.018971011 0.10104699 0.1675956 0.054632377 -0.076530315 -0.1269115 0.026373751 0.1865687 -0.1260418 -0.059994202 -0.022619648 -0.09104417 0.019670416 -0.012981141 -0.04954408 -0.11260821 -0.037716474 0.054652665 -0.04432203 0.019288806 -0.11156126 0.05866258 0.1146416 -0.060523015 0.04418841 -0.056536846 -0.031451423 -0.15935366 0.08054999 -0.023421472 0.06785073 0.058946904 0.15268187 -0.04026996
21 0.017406043 -0.079320416 0.083662964 0.20498616 -0.03982719 0.07892938 0.18992856 -0.07515768 0.008723827 0.074056804 -0.012249388 -0.14879635 0.062198207 0.0029166322 -0.03110031 -0.17186245 0.041954078 -0.034171876 0.06172587 -0.011545148 -0.022343824 -0.17909195 -0.12136819 -0.057149865 -0.010188931 -0.030950978 -0.26941857 -0.05662189 0.015257001 0.07816653 0.15055975 -0.04673144 0.011685293 -0.12779534 0.04746543 0.0903127 -0.015717244 -0.122212335 0.06248803 -0.011308834 0.09677073 -0.16990653 0.08143406 -0.08707879 0.13778585 -0.017452648 0.035064075 -0.083005555 0.088951506 0.036083117 -0.04688112 -0.058187466 -0.0964879 -0.025168711 -0.18799669 -0.09314709 -0.15582423 0.05731831 -0.09557197 0.09537273 -0.11322126 0.13522127 -0.11486233 0.2258644 -0.05132025 0.06976216 0.012198465 -0.12568755 0.008106313 0.27674896 -0.16409406 -0.06840748 -0.15781258 -0.0895922 0.022262143 -0.0493514 0.17224698 -0.034354243 -0.025615266 -0.078160845 0.23467298 -0.020587023 0.14662175 -0.12187748 0.07175399 0.07558971 -0.08969815 0.13380638 0.08431146 0.0051678447 0.030273557 0.028318133 0.084136516 0.26305488 0.06955923 0.023411602 0.09583273 0.17603327 -0.15177514 -0.12871319 0.046062578 0.13666764 -0.026957415 -0.0036053446 -0.050864987 -0.08819166 -0.06548889 -0.044312753 -0.1119264 -0.17108111 -0.08838567 0.030309364 -0.08096366 0.016487613 -0.04018729 0.011624499 0.091215596 -0.05731164 0.1182628 -0.06413491 -0.021896545 -0.19785306 0.052853234 -0.059913717 0.021141693 -0.054322172 0.18620935 0.0024844452
12 0.021685338 -0.060697846 0.10208099 0.17342666 -0.005518627 0.05769488 0.20480196 -0.08498681 0.023839572 0.06409574 0.009954388 -0.1554493 0.050039284 -0.02392692 -0.11125206 -0.19277641 0.040345754 0.00020245847 0.047750827 -0.07519477 -0.040291235 -0.18885602 -0.115304545 -0.11195039 -0.020501997 -0.028829128 -0.24328296 -0.013344863 0.00012291147 0.040863767 0.17399803 -0.05523865 -0.027603252 -0.12628649 0.01907171 0.1020502 -0.046319805 -0.15817045 0.08470342 0.03875791 0.08109026 -0.24516924 0.08450763 -0.11757736 0.08157009 -0.016882425 0.060104024 -0.10625489 0.07955847 0.043681603 -0.04359438 -0.039145567 -0.017826742 0.004721055 -0.1066467 -0.10976623 -0.12918013 0.09977148 -0.05367173 0.07763254 -0.15974396 0.16537566 -0.06731897 0.25901836 -0.045709677 0.08943225 -0.05743566 -0.1627912 0.0002998393 0.2730377 -0.15279424 -0.01902399 -0.17692384 -0.08204948 0.06387651 -0.034981016 0.12264576 0.02728369 -0.006267565 -0.11137097 0.16189721 0.0135705015 0.18108965 -0.0908791 0.107345805 0.045102812 -0.05103937 0.06871485 0.030955167 0.020430882 0.061020125 -0.042474754 0.087482765 0.24139762 0.034349427 0.070137754 0.14722824 0.09181128 -0.10539759 -0.1268275 0.035429154 0.1710122 -0.09601009 -0.04338594 -0.03562642 -0.09267636 -0.013259728 -0.025480792 -0.074336395 -0.13347633 -0.052524135 0.04318094 -0.05368669 0.020318197 -0.09203576 0.043892104 0.10258382 -0.061478678 0.07370516 -0.059302013 -0.032094277 -0.17250553 0.06693051 -0.0338453 0.056353446 0.016743176 0.16866393 -0.026954034
