34 128
34 -0.0055711796 -0.027481709 0.18732327 0.028326273 -0.036502995 0.081066005 0.087455556 -0.056953188 0.010988934 0.024994783 0.09491148 -0.11676396 0.017882826 0.06705958 0.19383581 0.109397985 -0.11213077 -0.05282344 0.06572242 0.021791546 -0.17598501 -0.22981024 -0.03769541 0.11492283 -0.18104059 -0.09170886 0.026722837 0.21261637 0.05670717 0.05229125 -0.11219447 0.0051284926 0.17398871 -0.06272951 0.067901574 0.085295275 -0.06907771 -0.13035952 -0.0025303625 0.0860346 0.1845315 0.042585164 0.12353488 0.09025002 -0.07061905 0.20756212 0.122686125 0.20463187 -0.10572421 0.022709949 0.2105006 0.10656194 -0.056217127 -0.02106023 0.031704202 -0.058672506 0.20540486 0.06955604 -0.14802782 -0.2326846 0.042052843 -0.013113491 -0.08159569 0.09405155 0.124766774 0.08359957 0.0048514223 -0.05488753 0.03911925 -0.10636034 0.011290961 -0.07707275 0.019503308 0.08978019 0.06457623 0.18905017 -0.13068756 -0.082015224 -0.02747622 0.047501463 -0.040657267 0.18992844 -0.11975245 0.17089935 -0.01794605 -0.09168667 0.040062673 0.079115294 -0.003585186 -0.022577357 -0.07096417 0.009321724 0.11544962 -0.27469355 -0.025507584 -0.19796163 0.09301531 0.11188158 -0.14364603 -0.14261077 0.25006574 -0.0046071177 0.07504995 0.12396574 -0.13646296 -0.035362147 0.15334587 0.033895742 -0.19956198 0.23728201 -0.08011522 -0.059406366 0.1512946 0.024894876 0.173682 -0.0874399 -0.0007493888 0.14239138 -0.03592678 0.08211526 -0.11360862 -0.17341492 -0.020529106 -0.20749176 -0.04764165 0.06216855 0.10342252 -0.059945893
1 0.06781876 0.046584897 0.2511317 -0.07190004 -0.0065973783 0.06816577 0.100025915 -0.11404276 0.07248182 -0.009061853 0.011324202 0.0012416758 0.09098745 0.020866565 0.18568191 0.10692756 -0.19098184 -0.0034833625 0.17325832 0.08600966 -0.14730573 -0.17027627 0.021029145 0.10985513 -0.15143822 -0.048930947 0.019015739 0.26217246 0.04018158 -0.052696835 -0.28910682 -0.0498485 0.12675877 -0.07573516 0.085416965 0.116572335 -0.0543251 -0.21666706 0.05105123 0.08791529 0.1338723 9.63962e-05 0.12700728 0.14126526 -0.14098273 0.093206674 0.12289417 0.18445776 -0.042882014 0.046068262 0.11876224 0.15323943 -0.018128665 -0.036191132 0.03595157 -0.06984689 0.21311417 0.028573034 -0.12919945 -0.077099696 0.06677302 -0.006352521 -0.18984571 0.08863428 -0.041357905 0.06629597 0.03764497 -0.026288705 0.10193262 -0.10120155 -0.004541796 -0.16491464 -0.043854337 0.03640706 -0.020238308 0.11174802 -0.090211354 -0.14041789 -0.07876922 0.04077701 -0.114036344 0.26230413 -0.059503358 0.14435647 0.008163443 -0.102916695 0.029336698 0.074733675 0.011404707 -0.005022531 -0.026451474 0.07171423 0.12450166 -0.20490383 -0.06221873 -0.17598073 0.006211515 -0.05093159 -0.108495615 0.018928807 0.11329884 -0.048627544 0.06090036 -0.0028667618 -0.1411727 -0.0024882741 0.20241833 0.11184305 -0.16749358 0.15862352 0.029052064 -0.17190874 0.023261063 -0.014110672 0.05351619 -0.041185226 0.15574512 0.08753865 0.002884519 0.1210281 -0.10885766 -0.091820955 0.002247144 -0.09873395 -0.07343442 -0.044068296 0.0149432365 -0.020120645
33 0.02028389 -0.013886928 0.21213728 0.0028423397 -0.037119847 0.08415875 0.09338008 -0.07884496 0.031013252 0.022783276 0.08313874 -0.097010456 0.024501896 0.051738907 0.19976038 0.11397912 -0.13268088 -0.044152524 0.09797544 0.033912398 -0.17099293 -0.22409962 -0.025580058 0.115862004 -0.17899351 -0.08084314 0.03109534 0.22918329 0.06382417 0.028993014 -0.15577027 -0.0046408386 0.16537103 -0.06312407 0.07782167 0.102998756 -0.063180886 -0.15166238 0.0054548816 0.08947089 0.17979161 0.03959272 0.12477201 0.09891218 -0.093539916 0.18195902 0.13076025 0.21220887 -0.09260379 0.027827896 0.1938367 0.122221954 -0.04832999 -0.018070126 0.034646768 -0.06397865 0.2128488 0.059034016 -0.14653242 -0.1948901 0.042229082 -0.011426611 -0.11228119 0.09167389 0.08436296 0.07981865 0.012841543 -0.051746756 0.055750016 -0.101943575 0.009941936 -0.09550799 0.0047318987 0.0824001 0.0478576 0.17474982 -0.121411495 -0.09414686 -0.043380003 0.04721983 -0.05096792 0.2010911 -0.10521428 0.16372582 -0.0144416075 -0.09797319 0.03754455 0.07145554 -0.0032655443 -0.022972206 -0.058109313 0.023389874 0.11330847 -0.25554916 -0.036775984 -0.19107194 0.0733298 0.08167947 -0.1309197 -0.10513449 0.2147978 -0.0056785205 0.06971445 0.089607686 -0.122486226 -0.024426224 0.15657791 0.04157672 -0.17732127 0.2123089 -0.059320457 -0.08560366 0.11975383 0.013759506 0.1383036 -0.082181 0.023620458 0.12764734 -0.031712096 0.08359742 -0.11289801 -0.15844063 -0.016984262 -0.16606854 -0.04934302 0.03970543 0.07800788 -0.057348106
3 0.03431321 0.0033180974 0.22184372 -0.016872317 -0.018747956 0.073250145 0.09786821 -0.0885096 0.034036204 0.008608784 0.045455102 -0.058291484 0.06714355 0.038610656 0.18625769 0.1164738 -0.14311789 -0.02470856 0.12625515 0.044964578 -0.16643424 -0.20870456 -0.015758786 0.1071976 -0.15721704 -0.06594222 0.014806495 0.2351127 0.049535833 -0.0015144215 -0.19857007 -0.027688034 0.16239499 -0.06696003 0.0666945 0.10014889 -0.06369452 -0.17649078 0.021900972 0.082509406 0.16466846 0.025036503 0.12157077 0.12665945 -0.11968345 0.1506439 0.12299237 0.20216693 -0.07743751 0.04007062 0.16094062 0.12838282 -0.036022477 -0.029665712 0.03322248 -0.06560847 0.19859727 0.05203126 -0.13913222 -0.15712588 0.055475116 -0.014522095 -0.13864683 0.09082803 0.03264034 0.075174466 0.017043248 -0.046066493 0.06843987 -0.10959002 -0.0075330087 -0.11882073 -0.01290949 0.06078737 0.029488519 0.15243669 -0.10479607 -0.117314816 -0.05393849 0.046855967 -0.0803072 0.22396843 -0.090918005 0.16691326 0.0017713503 -0.09715825 0.032055814 0.08704856 0.0052514267 -0.0049278256 -0.05234318 0.04303253 0.12525629 -0.24407804 -0.037763886 -0.20068851 0.05561254 0.027793648 -0.13268562 -0.054363575 0.18170609 -0.017475808 0.05999307 0.062070247 -0.14116159 -0.029498331 0.17140086 0.070021465 -0.1845914 0.1812586 -0.021202624 -0.118875556 0.07717579 0.00233769 0.110928014 -0.056838308 0.07858758 0.11976065 -0.018172378 0.10400413 -0.10802064 -0.12969255 -0.004430802 -0.1563327 -0.058253806 0.009195648 0.049375765 -0.03342971
2 0.047261704 0.018150076 0.23203722 -0.03757594 -0.011037357 0.06990174 0.1010997 -0.09578498 0.049488317 -0.0016567241 0.037440315 -0.0397582 0.07980465 0.03373412 0.18291797 0.11701607 -0.15472656 -0.016901108 0.1364991 0.056261837 -0.16532351 -0.19853014 -0.004874296 0.11062472 -0.16064036 -0.06446832 0.016570106 0.24224475 0.039849166 -0.016836582 -0.22217517 -0.031263776 0.15571924 -0.0686011 0.07271519 0.11183866 -0.06427924 -0.18468475 0.028519507 0.087875344 0.15056987 0.014219058 0.12904134 0.12919413 -0.12563778 0.14247847 0.12706734 0.19331917 -0.063159905 0.043297626 0.14614731 0.14120145 -0.03457247 -0.0328535 0.03086156 -0.06649297 0.20530239 0.04978094 -0.138509 -0.14095853 0.058583323 -0.010651574 -0.15585208 0.08679726 0.01184459 0.07710751 0.023615336 -0.038660523 0.08405451 -0.10600385 -0.0076645697 -0.13563654 -0.024226129 0.044710718 0.017244302 0.13825174 -0.10117077 -0.121334545 -0.06348531 0.040144563 -0.09086871 0.23823114 -0.08522812 0.16108558 0.004299869 -0.09131411 0.02891436 0.08351915 0.01455457 -0.0028011957 -0.043556213 0.05296026 0.12210697 -0.23496282 -0.048095606 -0.19327445 0.037444793 -0.0011724374 -0.1358877 -0.031154543 0.16056709 -0.026539981 0.05433665 0.04103985 -0.14322428 -0.0231389 0.18150774 0.083372176 -0.17957734 0.17495894 -0.0044853324 -0.13511682 0.06488768 0.0009665906 0.088429585 -0.05200853 0.1075993 0.10925405 -0.014119248 0.1081819 -0.10664458 -0.114675745 0.00054921454 -0.14661154 -0.06111017 -0.0050732265 0.046297308 -0.031905375
4 0.061590962 0.028324151 0.23321792 -0.05236287 -0.010278975 0.06971704 0.09667272 -0.10332526 0.066862874 -0.009356793 0.019256035 -0.01599156 0.085417904 0.026551114 0.17873313 0.108679764 -0.16412331 -0.002835627 0.14701915 0.072390296 -0.14961931 -0.17287588 0.011496931 0.09736038 -0.149078 -0.053562056 0.013674389 0.24216285 0.036702156 -0.03516738 -0.2514649 -0.04037952 0.13440387 -0.07291812 0.079309694 0.11342222 -0.04947066 -0.19568229 0.042299557 0.08456634 0.12660407 0.005333189 0.12279101 0.1328322 -0.13266729 0.10866125 0.12427095 0.17935729 -0.043752685 0.04641979 0.11970979 0.14112426 -0.027050655 -0.028400602 0.034488652 -0.067512825 0.20341237 0.035604626 -0.13139735 -0.09532598 0.065218605 -0.011574783 -0.17223161 0.086045474 -0.0243912 0.071971305 0.025948552 -0.031230336 0.0938389 -0.10282814 -0.007677814 -0.1520034 -0.033111833 0.03493925 -0.0074666594 0.112366416 -0.08578214 -0.12880868 -0.06855426 0.036030456 -0.09914006 0.24803175 -0.06827831 0.14303675 0.007920164 -0.09506252 0.031120794 0.07466577 0.017339211 -0.0025498958 -0.030273318 0.0643811 0.12426273 -0.20703161 -0.05425917 -0.17632507 0.022490878 -0.031917427 -0.12011985 0.0030191373 0.11743415 -0.03778467 0.053137373 0.011858513 -0.13665399 -0.016339801 0.18849441 0.092141636 -0.16194972 0.15448818 0.016569033 -0.15227751 0.039235115 -0.0076971175 0.061992187 -0.047435243 0.13327105 0.09121973 -0.010758123 0.10728567 -0.09929181 -0.095439196 0.0019029458 -0.11326484 -0.06746522 -0.02643145 0.02256104 -0.028961146
32 0.028080396 0.0035351443 0.21621324 -0.018777885 -0.028764807 0.08000392 0.08930782 -0.082602516 0.03810966 0.0073590465 0.06449609 -0.07091776 0.039395023 0.0458349 0.19178155 0.11338051 -0.14111827 -0.030495198 0.11329443 0.050394442 -0.16241996 -0.2076657 -0.011061289 0.109594546 -0.17433816 -0.07370759 0.026214309 0.2256721 0.05146693 0.008240871 -0.18331975 -0.017539281 0.15286027 -0.06080194 0.07682889 0.09794823 -0.059983913 -0.15995301 0.012377927 0.082952835 0.15301134 0.027140003 0.113477014 0.1065589 -0.10025225 0.15061077 0.124733396 0.18787366 -0.07448378 0.03519727 0.16881977 0.122805655 -0.040293545 -0.021627111 0.029271942 -0.057867553 0.20445897 0.048484784 -0.13461345 -0.15946816 0.04938899 -0.010270703 -0.12657073 0.08956664 0.056532156 0.07218889 0.023166383 -0.042546898 0.07225945 -0.10026315 0.00876951 -0.11559805 -0.007890865 0.062047705 0.02809745 0.1521377 -0.10987039 -0.09549182 -0.048446402 0.03722874 -0.067150004 0.21184285 -0.08974526 0.15176423 -0.0034468358 -0.08886902 0.041222006 0.0683129 0.006924571 -0.01830259 -0.041074682 0.03511387 0.11067695 -0.23741335 -0.04248478 -0.17161547 0.053165022 0.044604607 -0.11754486 -0.07296604 0.17624725 -0.01728663 0.063267626 0.06791251 -0.123184845 -0.021343391 0.15788239 0.061735407 -0.17099732 0.18900777 -0.040558524 -0.094946384 0.09327239 0.008894692 0.11627627 -0.07223052 0.053630818 0.11183728 -0.018333927 0.09046242 -0.101940334 -0.13080737 -0.012127799 -0.14750665 -0.05166915 0.0192912 0.057998154 -0.047265057
24 -0.011507311 -0.039224613 0.19547902 0.035457622 -0.04972431 0.089814425 0.08845813 -0.06267899 0.010315298 0.03316417 0.111276105 -0.13700838 -0.004503682 0.06602033 0.20844488 0.112547405 -0.1077629 -0.059583336 0.06881835 0.021560598 -0.17642498 -0.2456068 -0.045183945 0.11344759 -0.19290513 -0.09447587 0.034250718 0.21265869 0.06498984 0.056397215 -0.097810954 0.014225552 0.17406863 -0.061080545 0.0660796 0.086170174 -0.07107613 -0.11687817 -0.013022386 0.094703406 0.18798093 0.05536222 0.11751026 0.08122484 -0.06902804 0.21929328 0.13270263 0.21693699 -0.11075328 0.023330772 0.21748988 0.10027636 -0.058111567 -0.0104346145 0.0412015 -0.054932516 0.2068173 0.067173816 -0.14784686 -0.24119788 0.038777325 -0.016413797 -0.07879417 0.09804846 0.1420399 0.08107678 0.0022671446 -0.061408363 0.03889274 -0.09737731 0.012064104 -0.072859205 0.01982626 0.105753765 0.074941695 0.19521739 -0.1325629 -0.07483364 -0.022477677 0.044031445 -0.03054325 0.1768697 -0.12074677 0.16217 -0.021756332 -0.097875275 0.04782581 0.071950674 -0.0035695378 -0.028986176 -0.06635188 0.004289335 0.103872925 -0.27907446 -0.027180731 -0.19511648 0.096140616 0.13274254 -0.13727292 -0.15734439 0.2594484 0.008393641 0.079925835 0.13455634 -0.1241481 -0.032661162 0.14093332 0.021575505 -0.19606823 0.23711388 -0.09763958 -0.044630684 0.15614891 0.033888113 0.18112242 -0.0906663 -0.027310677 0.14183405 -0.04222193 0.070246644 -0.11866908 -0.18123405 -0.026258321 -0.20418243 -0.040890098 0.07408131 0.103535146 -0.063163355
14 0.038485896 0.005293528 0.22511114 -0.025118062 -0.019544506 0.07722389 0.099905066 -0.08606194 0.040266223 0.00799397 0.046336018 -0.05662982 0.066991076 0.03862523 0.1891302 0.11390642 -0.15319756 -0.017840525 0.12427305 0.05674839 -0.16580755 -0.20342763 -0.010231849 0.10521129 -0.1665766 -0.069520585 0.0149313165 0.2342629 0.042254932 -0.0040791687 -0.20717248 -0.021079196 0.1494976 -0.07159369 0.07087729 0.1034352 -0.05979713 -0.16994175 0.024842896 0.084066205 0.1519485 0.01879366 0.1233357 0.12622847 -0.110552266 0.14915639 0.1275973 0.19671187 -0.07485135 0.043017782 0.16108039 0.13023666 -0.037266035 -0.030624492 0.037644982 -0.06007517 0.20266388 0.049435668 -0.13880852 -0.14845572 0.059645347 -0.010232871 -0.1451889 0.083923504 0.032261476 0.07058717 0.015888877 -0.04202776 0.071320735 -0.10852023 -0.0067716544 -0.12403911 -0.019662432 0.0564587 0.028647495 0.14340912 -0.10226936 -0.11575537 -0.051057346 0.040282592 -0.07825247 0.23094422 -0.09168969 0.1551913 0.0004405198 -0.097396396 0.031754214 0.083072715 0.012423946 -0.008755238 -0.04960789 0.04490817 0.121979184 -0.24050866 -0.043000147 -0.19065969 0.051143646 0.023177084 -0.13184445 -0.05323527 0.16964692 -0.025160087 0.06173691 0.055635095 -0.14190592 -0.028459795 0.17925274 0.07211638 -0.18047392 0.1845204 -0.019779176 -0.122944586 0.07799863 0.009088994 0.10144032 -0.06101862 0.086365394 0.11462995 -0.022693263 0.09550268 -0.10895618 -0.12897226 -0.009316914 -0.15159783 -0.063098915 0.0065094205 0.052224122 -0.035982236
28 -0.005185983 -0.031298712 0.18365304 0.03217525 -0.045596443 0.083640724 0.08836404 -0.059061237 0.011395847 0.027127106 0.095995426 -0.11846727 5.2405492e-05 0.065196425 0.19251655 0.10861211 -0.10154058 -0.05521433 0.06618988 0.0227358 -0.16990292 -0.23290338 -0.0396867 0.11128416 -0.18013224 -0.09252078 0.028707026 0.20225635 0.061298 0.049840365 -0.09873556 0.007785128 0.16634227 -0.05869034 0.063290715 0.08126356 -0.066727914 -0.12469217 -0.0068625333 0.08870562 0.18494166 0.05162916 0.1139801 0.084051326 -0.06698833 0.2058373 0.12725542 0.205935 -0.10004991 0.017665816 0.2069983 0.10394705 -0.052467104 -0.0076090316 0.038015403 -0.059650194 0.19546148 0.06163675 -0.13944256 -0.22969647 0.038095944 -0.009969831 -0.07942265 0.09312235 0.12874469 0.077231966 0.008978579 -0.055116687 0.042629734 -0.09525628 0.012987773 -0.0755735 0.022071926 0.0986031 0.06697612 0.18676671 -0.12828757 -0.07641614 -0.026357824 0.044040293 -0.030040126 0.17496918 -0.116097495 0.15355106 -0.015841579 -0.092065796 0.041391235 0.070666224 -0.0085611595 -0.02852382 -0.062231645 0.010636523 0.10508971 -0.25896043 -0.026036182 -0.18725474 0.0905676 0.122067094 -0.12241503 -0.14445923 0.23908482 0.002585692 0.07393451 0.12548506 -0.12021296 -0.03065475 0.12689465 0.023979055 -0.18245465 0.22019032 -0.08628896 -0.038996164 0.13973126 0.02485326 0.16598368 -0.08840587 -0.018710226 0.13555005 -0.03689611 0.069870114 -0.11164426 -0.1665074 -0.025556952 -0.19223924 -0.04369215 0.06385727 0.09658716 -0.06333938
9 0.034143925 0.0051155407 0.22319539 -0.024153909 -0.026945598 0.077714585 0.09564743 -0.0908957 0.04074302 0.010529609 0.053835206 -0.05915017 0.054162692 0.043482427 0.19688217 0.1085937 -0.14748636 -0.029626368 0.12408376 0.05734563 -0.16530897 -0.20547937 -0.0122501245 0.111186564 -0.17121588 -0.06735365 0.018893681 0.24291548 0.05218268 0.0011353974 -0.1987162 -0.020547936 0.15811697 -0.0685317 0.076936364 0.10598934 -0.05687666 -0.16881478 0.024276288 0.093363754 0.162848 0.019075425 0.12779549 0.11834207 -0.112623386 0.1515781 0.12817712 0.2038922 -0.07256051 0.03922398 0.16688663 0.13511482 -0.0380317 -0.02190732 0.032875344 -0.062207207 0.20998228 0.054441687 -0.13808087 -0.15947662 0.05430749 -0.0074405647 -0.14193952 0.09097675 0.036161754 0.077345 0.018344352 -0.041039445 0.078719415 -0.10543348 -0.0018390769 -0.12179744 -0.013700303 0.06133317 0.02428684 0.15060823 -0.111154824 -0.11263945 -0.054094195 0.038399752 -0.07406145 0.22786064 -0.0944351 0.1610507 -0.0003431665 -0.09838228 0.036737498 0.0798339 0.007107125 -0.014429788 -0.04445468 0.04272496 0.11775231 -0.24357192 -0.04531199 -0.18731809 0.05310126 0.033423953 -0.12659574 -0.058522087 0.18070665 -0.024060754 0.06474457 0.06367057 -0.13511984 -0.020946542 0.17772025 0.07177993 -0.17607765 0.19096039 -0.023625925 -0.11741471 0.08601625 0.008090183 0.111686155 -0.06360302 0.07793298 0.11673013 -0.01882008 0.095580235 -0.108745985 -0.1370072 -0.008599391 -0.15271969 -0.060415458 0.012060592 0.05898964 -0.04319717
8 0.04595566 0.013585016 0.22096804 -0.034509484 -0.015876 0.06621761 0.09140971 -0.08663598 0.049462233 -0.0016383806 0.036001317 -0.042369332 0.072132505 0.032016013 0.17645244 0.112102896 -0.14552636 -0.019844124 0.12797463 0.056441586 -0.15991355 -0.19562301 -0.007872101 0.10929567 -0.15514879 -0.06339118 0.013749292 0.23352641 0.046039674 -0.01257534 -0.21029808 -0.030493936 0.149657 -0.06352712 0.07139735 0.10527946 -0.058857087 -0.17618598 0.027241202 0.07854227 0.1453071 0.01580165 0.11956209 0.12550825 -0.111712724 0.13477351 0.12082584 0.18711638 -0.06245083 0.043361105 0.14331055 0.12839815 -0.032352604 -0.026206195 0.033167187 -0.062149864 0.1981379 0.044266164 -0.1325857 -0.13590294 0.05392631 -0.010955593 -0.14406265 0.08130621 0.015146533 0.072429426 0.022434978 -0.040558744 0.07713303 -0.10169591 -0.00510671 -0.123184554 -0.022212304 0.04303968 0.020467365 0.130441 -0.09276478 -0.1112213 -0.05593369 0.038860824 -0.08649327 0.22315481 -0.07948561 0.14974135 0.0039048258 -0.085280165 0.033393707 0.07946866 0.012294493 -0.0046525346 -0.04164529 0.049664084 0.11499015 -0.22062689 -0.043095488 -0.17891309 0.040204294 0.002962421 -0.12687264 -0.033631165 0.1480637 -0.025294015 0.05415113 0.040553592 -0.13318123 -0.019446122 0.17003216 0.07116294 -0.16651906 0.16407213 -0.008860355 -0.12030802 0.065157555 0.0002430511 0.08670113 -0.050398286 0.09246229 0.106648974 -0.015837241 0.09692475 -0.09739881 -0.11441366 -0.0017501818 -0.13752311 -0.058482274 -0.004575287 0.042571865 -0.03560656
6 0.1098498 0.08860038 0.26663727 -0.11780423 0.0029390412 0.057981133 0.08578154 -0.1327563 0.11198331 -0.024054395 -0.025381597 0.06579536 0.114396386 -0.0046086805 0.16978204 0.09434854 -0.22013503 0.020355832 0.21159542 0.11149206 -0.11632278 -0.121449225 0.049912956 0.09991887 -0.13106184 -0.02357855 0.0051346663 0.27654624 0.040573105 -0.0865722 -0.360088 -0.067742996 0.102199234 -0.07616721 0.10539012 0.14003849 -0.03611479 -0.24856305 0.067744076 0.088664375 0.098678194 -0.027444053 0.12554657 0.15391083 -0.16700682 0.027902376 0.13017921 0.1580448 -0.0044443365 0.060060643 0.08496464 0.17298701 -0.0103729945 -0.04115623 0.026641235 -0.06991059 0.21493201 0.009918359 -0.11199175 0.009589687 0.07682271 -0.009246598 -0.2313659 0.083136044 -0.12301041 0.055304285 0.057003718 0.0009047756 0.13711603 -0.09567633 -0.007522248 -0.20097268 -0.06634778 -0.001207689 -0.06901965 0.059403803 -0.064487375 -0.15397184 -0.09586346 0.023024553 -0.14308982 0.29396534 -0.03391057 0.12881187 0.020696674 -0.10162871 0.015995674 0.056540478 0.015774772 0.0036272216 -0.011472947 0.0952574 0.12842646 -0.16993156 -0.084896795 -0.15018153 -0.039647624 -0.13137697 -0.090367414 0.1062004 0.038198885 -0.07245816 0.04814747 -0.06538532 -0.12415017 0.013845182 0.21543808 0.1379996 -0.1346095 0.11960475 0.07251691 -0.22109635 -0.03530424 -0.036354583 -0.012715204 -0.029965907 0.22063367 0.054263983 0.024837345 0.13035865 -0.09453445 -0.058051813 0.012349984 -0.027583292 -0.080269195 -0.10167256 -0.024093844 -0.006370511
30 0.017201304 -0.003590646 0.21036884 -0.0023309079 -0.032488078 0.07641341 0.09025307 -0.07755114 0.03182036 0.018412655 0.072950564 -0.085367456 0.03001244 0.053804908 0.19246581 0.108679436 -0.13364168 -0.03797489 0.09785567 0.044624474 -0.1675919 -0.2151137 -0.02270449 0.104985975 -0.17479919 -0.07468729 0.025280591 0.22651842 0.051010348 0.023440903 -0.15841095 -0.0121578425 0.15611844 -0.06239228 0.07268387 0.09418305 -0.0600815 -0.14571321 0.008077387 0.09051681 0.16793409 0.034364894 0.122410096 0.099308774 -0.09008014 0.17134173 0.12293974 0.1981506 -0.08312124 0.028342612 0.1836309 0.11579405 -0.041270982 -0.018496335 0.03368844 -0.059304167 0.20276734 0.059632752 -0.1416706 -0.18338892 0.045725085 -0.014012937 -0.11479455 0.09294673 0.07815683 0.07452142 0.01891149 -0.043305986 0.057818968 -0.100579344 0.0050009917 -0.09842072 -0.0026274375 0.07799816 0.037746187 0.16457157 -0.116392195 -0.09475509 -0.03867875 0.043997135 -0.057900354 0.19839987 -0.096852094 0.15205324 -0.0056601246 -0.09652934 0.039288912 0.07576164 0.0012122702 -0.015624262 -0.055326227 0.026181443 0.10951523 -0.24664319 -0.03816961 -0.18299878 0.066500865 0.063843764 -0.12493669 -0.09702233 0.19795576 -0.015166376 0.066172004 0.08810086 -0.13176379 -0.021617565 0.15462688 0.052812982 -0.18126222 0.20561484 -0.05205201 -0.08615057 0.11048069 0.015459606 0.13338718 -0.07582196 0.038521785 0.12538876 -0.026122367 0.084878534 -0.1110784 -0.14875934 -0.01850598 -0.16497338 -0.05239517 0.03020971 0.074903764 -0.046775248
7 0.09519043 0.07622893 0.25968462 -0.09477951 -0.008739591 0.06490703 0.09550834 -0.12480731 0.09646711 -0.0139362095 -0.0044250353 0.0329058 0.10462277 0.009008342 0.17986204 0.09892703 -0.20763233 0.0045515946 0.19638443 0.103852585 -0.12584177 -0.14228402 0.038548198 0.10264759 -0.14416316 -0.033847917 0.012175705 0.27541837 0.04270737 -0.073157646 -0.33324346 -0.060587563 0.11662247 -0.080956995 0.10150831 0.13434926 -0.041683763 -0.23807767 0.06420469 0.091520995 0.11348466 -0.021189108 0.12457655 0.14538023 -0.15293531 0.051604778 0.12614462 0.17135584 -0.019370213 0.05913621 0.09786711 0.16987842 -0.016239276 -0.04127497 0.0311587 -0.06752954 0.21922542 0.021588545 -0.11941603 -0.02442638 0.07022362 -0.0076226057 -0.21882929 0.0871058 -0.08925106 0.06693292 0.051342957 -0.012058221 0.12131384 -0.09560297 -0.007580769 -0.18964468 -0.06213322 0.015865862 -0.049299292 0.08543238 -0.0773971 -0.14568749 -0.088264704 0.029451119 -0.12808512 0.28588468 -0.04256734 0.13952522 0.018400343 -0.106668 0.02014438 0.06349288 0.023259414 0.002003178 -0.019343808 0.08532423 0.12818581 -0.19051568 -0.07679512 -0.15829164 -0.014576752 -0.09640121 -0.09676792 0.07212735 0.073153794 -0.06602601 0.06064626 -0.037469827 -0.13241689 0.008564997 0.21118298 0.13431652 -0.14764582 0.14075792 0.05708775 -0.202585 -0.006261267 -0.029193284 0.021200476 -0.03833779 0.19782269 0.07437006 0.008902817 0.12995367 -0.09800695 -0.07762557 0.002745744 -0.059728667 -0.07329848 -0.07528006 -0.006552551 -0.016874153
11 0.10424723 0.07985384 0.25930727 -0.10746646 -0.0015549159 0.06468058 0.087366514 -0.12807009 0.10194592 -0.020624595 -0.011229863 0.044350583 0.10296857 0.009403678 0.17370634 0.10264916 -0.21658738 0.007934759 0.2002915 0.10311138 -0.12600584 -0.13887955 0.03915467 0.104335114 -0.14137515 -0.032502454 0.014325592 0.27054837 0.045074873 -0.076150134 -0.3396156 -0.065565504 0.115429945 -0.07304483 0.10607943 0.13704206 -0.035594795 -0.24278873 0.06275415 0.09052073 0.107332356 -0.019235423 0.12513806 0.14527412 -0.15728688 0.043633685 0.12886547 0.16307624 -0.0153747145 0.05712463 0.09751361 0.17028053 -0.00969426 -0.041139346 0.027161809 -0.06986902 0.2205387 0.022522224 -0.122166276 -0.015277404 0.06978636 -0.003402657 -0.22541408 0.08356375 -0.098272085 0.05770859 0.055418048 -0.0088228285 0.124461144 -0.09618566 -0.0071090055 -0.19648589 -0.059405953 0.0059109433 -0.059536766 0.076504305 -0.072654605 -0.14543624 -0.09217406 0.030009441 -0.13044761 0.28765005 -0.04143277 0.13963087 0.018652372 -0.10374883 0.026432253 0.05999256 0.021067899 0.006320623 -0.007710247 0.08404279 0.12954746 -0.1820122 -0.08243135 -0.15107729 -0.026323402 -0.11062765 -0.096065775 0.08127699 0.058305394 -0.06848101 0.057462938 -0.042301666 -0.13058284 0.012892484 0.21406639 0.13683315 -0.14211825 0.12979019 0.062980294 -0.21027903 -0.008759725 -0.03229794 0.013856601 -0.036610506 0.20205724 0.06667976 0.014571937 0.13276228 -0.09735434 -0.07157281 0.0062142196 -0.048165675 -0.07588425 -0.08618549 -0.008710817 -0.016637238
25 0.01463518 -0.015033335 0.19042942 0.0046575293 -0.035853196 0.07919738 0.07942912 -0.06687687 0.026475586 0.015938003 0.08673479 -0.0944491 0.010459603 0.053902477 0.19151871 0.110328965 -0.1264783 -0.04656668 0.084228545 0.030545551 -0.16687106 -0.21329999 -0.029321767 0.10890816 -0.18042645 -0.08022659 0.02948623 0.21757546 0.06301655 0.03442982 -0.13729548 -0.0014361611 0.16442883 -0.06147982 0.074169464 0.09803215 -0.06553567 -0.14187457 -0.0036522069 0.08986728 0.17561804 0.040478066 0.1199908 0.08804355 -0.08257047 0.18580534 0.13203923 0.2008283 -0.09210327 0.025280107 0.19975509 0.11568439 -0.04969135 -0.015345879 0.03242378 -0.05862334 0.21018739 0.061762277 -0.14378774 -0.19840732 0.042144176 -0.015159918 -0.101238936 0.09303027 0.10060917 0.07395227 0.017982127 -0.045673113 0.05937703 -0.09301701 0.016582469 -0.09118981 0.005296224 0.08262376 0.0458551 0.17137441 -0.12120778 -0.08427345 -0.036385838 0.039777696 -0.04854966 0.1935987 -0.1004018 0.15864214 -0.0120958155 -0.09431157 0.045464423 0.06386102 -0.005128465 -0.018511672 -0.05234337 0.017794069 0.108484305 -0.25919217 -0.038259257 -0.17575252 0.06799291 0.091402665 -0.1194552 -0.11316464 0.21677567 -0.0034552075 0.07090592 0.09953558 -0.11676267 -0.025259102 0.14067824 0.04513849 -0.17807287 0.20935522 -0.0679976 -0.07191571 0.12870188 0.017527854 0.14455968 -0.0860087 0.01710935 0.12348615 -0.02598252 0.08121257 -0.11151451 -0.15400827 -0.024570387 -0.1681876 -0.04748445 0.041828107 0.08646134 -0.05883285
5 0.10716168 0.08043079 0.26717508 -0.10760938 -0.006703182 0.060901143 0.09401385 -0.12785709 0.10588941 -0.018904466 -0.007968289 0.047461428 0.10535504 0.0066506867 0.18307257 0.10432474 -0.21572372 0.009978173 0.20060042 0.110278904 -0.13178703 -0.14026374 0.038113445 0.10514273 -0.15001272 -0.035630208 0.012040974 0.2829765 0.04330889 -0.07369112 -0.34443256 -0.059679456 0.11450796 -0.07669392 0.10924388 0.1395958 -0.03717369 -0.24249095 0.059050247 0.09515787 0.10765116 -0.022232363 0.12658769 0.15495917 -0.15864724 0.050067544 0.135354 0.17019063 -0.010713177 0.062733464 0.10481695 0.17519519 -0.01099843 -0.041355643 0.032498475 -0.068169184 0.22819054 0.020604927 -0.12761033 -0.018674927 0.07519844 -0.008199884 -0.23074181 0.087384194 -0.101372585 0.06411163 0.057895496 -0.0057830806 0.13161469 -0.09892555 -0.0035244953 -0.19718203 -0.067805044 0.009880517 -0.050947424 0.07857517 -0.07339348 -0.1449782 -0.09589369 0.025317175 -0.13633415 0.29808316 -0.04216251 0.13893759 0.022135919 -0.10774256 0.026923686 0.06594283 0.019830424 0.0040335334 -0.011733332 0.08487883 0.13216038 -0.19247402 -0.079145774 -0.16324472 -0.022901919 -0.107864834 -0.10191163 0.07914803 0.06271804 -0.073341034 0.061053548 -0.043846205 -0.1332416 0.006292636 0.22257182 0.13632017 -0.1504913 0.14001231 0.060169786 -0.21636532 -0.011867736 -0.026331602 0.011445282 -0.034855746 0.20865558 0.06920987 0.01575266 0.13306996 -0.10522226 -0.07533503 0.0027340716 -0.051203836 -0.0790897 -0.08385521 -0.0026071137 -0.020304726
20 0.035953186 0.009358589 0.21870625 -0.027135944 -0.023360169 0.07511752 0.09211563 -0.08972154 0.046469953 0.010901821 0.051096503 -0.0575065 0.052970823 0.041844867 0.1921321 0.11304547 -0.1448913 -0.023240756 0.122119844 0.051514547 -0.16314742 -0.19992138 -0.010679239 0.108303934 -0.16635007 -0.06361647 0.02143915 0.2362324 0.046501957 -0.0028770529 -0.19961897 -0.024290252 0.14838555 -0.06389891 0.07316576 0.10145287 -0.05880291 -0.16676931 0.018669156 0.09040281 0.15471026 0.025135597 0.120641164 0.11957356 -0.11138427 0.14762963 0.12326408 0.19350477 -0.06716599 0.03630767 0.15824121 0.13197476 -0.03524255 -0.026818393 0.03565794 -0.06070599 0.20430794 0.050117582 -0.13323571 -0.14459217 0.057795625 -0.012610913 -0.13550243 0.088306956 0.031601664 0.07489928 0.024095854 -0.037674848 0.07629232 -0.09861393 0.0036324128 -0.12298167 -0.018494308 0.057530634 0.019569974 0.14680351 -0.109855406 -0.11308721 -0.055092487 0.04458131 -0.07801002 0.22393902 -0.08740685 0.15223946 -0.0050642863 -0.09457664 0.031974815 0.076041855 0.0030902238 -0.00990205 -0.046649225 0.04198935 0.120440476 -0.23993918 -0.042119894 -0.18133579 0.050029118 0.026669184 -0.124959305 -0.05564926 0.1754791 -0.022730514 0.0666416 0.058083538 -0.13665724 -0.017706433 0.17406653 0.07232242 -0.17072122 0.18362133 -0.027063012 -0.115828134 0.07919682 0.0046957782 0.108665034 -0.0591668 0.079700835 0.11279055 -0.019542715 0.09581279 -0.11016056 -0.12983477 -0.009528983 -0.14822051 -0.05990918 0.010841791 0.05442304 -0.040131245
31 0.029636864 0.0014922029 0.22226788 -0.01569804 -0.021238906 0.07377733 0.09338205 -0.08715918 0.036815643 0.0054200958 0.05280806 -0.06469056 0.057242196 0.046474993 0.1911341 0.1093421 -0.14693947 -0.026192108 0.11727601 0.05038223 -0.16254956 -0.20822684 -0.01702224 0.10689185 -0.16986509 -0.06944587 0.01751054 0.23289077 0.048829958 0.0065191714 -0.19458121 -0.020383768 0.15718839 -0.07011033 0.074045844 0.101762615 -0.05714507 -0.16803584 0.02285823 0.0906534 0.15917107 0.02367879 0.12321558 0.11964924 -0.11106016 0.15884314 0.1276165 0.19856031 -0.079433076 0.03951979 0.16374975 0.12844677 -0.04110046 -0.023301506 0.037243776 -0.06403784 0.2085465 0.050550584 -0.1387764 -0.16238473 0.057699673 -0.012156268 -0.13907728 0.08849715 0.039411694 0.0727801 0.020306867 -0.04690034 0.07173159 -0.102222465 -0.0040906966 -0.12071437 -0.010149152 0.064324856 0.031439114 0.15232837 -0.10878185 -0.109292395 -0.051880274 0.042995762 -0.07421487 0.22745231 -0.093344815 0.16298893 -0.0031150235 -0.09488699 0.037706748 0.08120184 0.007767043 -0.012403353 -0.044768933 0.04243224 0.11975126 -0.24484278 -0.038174182 -0.19219984 0.057975706 0.03196682 -0.13139787 -0.062015075 0.18658918 -0.01922825 0.06764066 0.06689514 -0.13478604 -0.026630923 0.17392902 0.0651233 -0.17793526 0.19021082 -0.030964736 -0.11005206 0.087832786 0.008403925 0.1149658 -0.0635075 0.075118534 0.1132826 -0.023295457 0.09357607 -0.109475054 -0.13385491 -0.011438162 -0.15463935 -0.056489393 0.013272513 0.057023913 -0.04628935
26 -0.001911434 -0.029805886 0.20723018 0.023315344 -0.046135906 0.08966888 0.09447961 -0.07164941 0.013071224 0.025586257 0.109286815 -0.13018714 0.0019951658 0.06541111 0.21400972 0.12340055 -0.12420393 -0.059903804 0.08407691 0.031729825 -0.19018754 -0.254655 -0.03813531 0.121230535 -0.19454809 -0.09759101 0.032991543 0.22644049 0.06503175 0.051836412 -0.118962586 0.008516652 0.1847361 -0.06616936 0.077494614 0.09484619 -0.072974905 -0.14250715 -0.006186455 0.098173715 0.20034027 0.047944356 0.12961593 0.092739 -0.0821724 0.22016679 0.13858633 0.22193806 -0.11228485 0.024831036 0.22768319 0.11671696 -0.056056224 -0.015918374 0.04292511 -0.06113261 0.21774659 0.07019049 -0.16027243 -0.2464574 0.04403429 -0.010370509 -0.09131502 0.09971864 0.13248432 0.08505241 0.007408306 -0.05551177 0.051938117 -0.10372588 0.017406614 -0.08656788 0.011762837 0.10517714 0.067285344 0.19863729 -0.13520516 -0.08274304 -0.033100255 0.0483899 -0.03629231 0.20013122 -0.12141058 0.17298934 -0.01965185 -0.09834568 0.047159493 0.080993354 -0.00341528 -0.031236773 -0.06836188 0.013401686 0.113232054 -0.28964826 -0.031194456 -0.20196168 0.09240179 0.12461709 -0.13581853 -0.15692347 0.26147935 0.005498965 0.08385535 0.13122648 -0.13580436 -0.032955546 0.15364788 0.03619127 -0.20405972 0.24407369 -0.08819083 -0.055574216 0.14946716 0.030366348 0.17786767 -0.09191384 -0.00938826 0.14991714 -0.038197316 0.07944035 -0.1258095 -0.18424565 -0.027707363 -0.20538229 -0.05016466 0.06609346 0.099218674 -0.06262536
29 0.027442934 -0.00014598283 0.20749998 -0.0070890984 -0.03159902 0.074683025 0.09382013 -0.078767024 0.033228077 0.013169809 0.068788104 -0.07779323 0.044052433 0.049069036 0.19395682 0.109527916 -0.13883252 -0.03431772 0.10551058 0.042184874 -0.16494146 -0.21154411 -0.016919013 0.11132196 -0.1681856 -0.07645866 0.023336807 0.22917637 0.05259809 0.017363278 -0.16950962 -0.010467646 0.15649721 -0.06458978 0.07001994 0.10136892 -0.058636114 -0.15397044 0.009986651 0.0865391 0.16355352 0.02628009 0.11812841 0.10823738 -0.09696709 0.16783282 0.12960498 0.19812316 -0.0808014 0.033058293 0.17340453 0.12256436 -0.040491804 -0.024638435 0.038482938 -0.060823947 0.19981587 0.055260677 -0.1345794 -0.16864347 0.051095765 -0.013460431 -0.11630654 0.09190239 0.05745168 0.072556056 0.017553465 -0.04448668 0.060324255 -0.09997498 0.0027359095 -0.106127396 -0.0093411105 0.06734372 0.038463295 0.15889612 -0.11327679 -0.10033785 -0.046503168 0.03919607 -0.06468896 0.20676829 -0.09570084 0.1580365 -0.002993108 -0.0909564 0.04055171 0.0761637 0.0046479036 -0.01785642 -0.047031764 0.029437272 0.114563614 -0.24581265 -0.03601486 -0.18638915 0.06138363 0.05422979 -0.12801817 -0.084351204 0.19407122 -0.016316313 0.06469194 0.073505305 -0.12751646 -0.026670815 0.16374478 0.054031525 -0.17716733 0.19849388 -0.04060408 -0.09644649 0.10124389 0.0094099445 0.124639235 -0.066929206 0.045978963 0.11578434 -0.022139225 0.09125818 -0.10559672 -0.14187482 -0.01746664 -0.15602462 -0.05542982 0.024581123 0.06204779 -0.04512329
19 0.019465454 -0.0083256075 0.1997949 -0.0049136514 -0.027436525 0.07625253 0.08808982 -0.07651851 0.028752232 0.009039539 0.06868348 -0.07413902 0.03808481 0.043829687 0.1852895 0.10842181 -0.12689507 -0.029913181 0.09757819 0.04173615 -0.15872143 -0.2036669 -0.020347824 0.10166322 -0.16726664 -0.076053694 0.023537725 0.21863817 0.049713783 0.016111167 -0.16030444 -0.013647679 0.15795298 -0.06125596 0.073429376 0.09688568 -0.058043364 -0.1455108 0.007797497 0.08312421 0.1639394 0.0277584 0.119763926 0.10576102 -0.09144399 0.1682593 0.12612535 0.19293928 -0.08159916 0.030946082 0.17597768 0.118691206 -0.0389213 -0.02168077 0.03731633 -0.0625752 0.19693352 0.054585528 -0.13938846 -0.17841223 0.051303163 -0.011072608 -0.11149178 0.08586612 0.06428889 0.07687826 0.01592259 -0.043630037 0.060795028 -0.100932 0.0015184295 -0.102404125 -0.0039255843 0.07189222 0.041249096 0.1607529 -0.109496415 -0.097716756 -0.042743903 0.04471406 -0.062176906 0.20277274 -0.094705835 0.14946125 -0.006884646 -0.087490074 0.03711144 0.07059147 0.0017369213 -0.017503725 -0.050735146 0.029209344 0.110213414 -0.24366374 -0.03322388 -0.18246908 0.063157625 0.05900202 -0.12602615 -0.088515654 0.19513611 -0.012027414 0.061509483 0.07783819 -0.12725219 -0.02909496 0.15216605 0.055483803 -0.17634405 0.19291289 -0.04204548 -0.08818682 0.1049972 0.013965192 0.12615694 -0.06666239 0.042392194 0.11988622 -0.021742718 0.08338553 -0.10716156 -0.13665959 -0.016907347 -0.16394356 -0.054454602 0.025983104 0.066776425 -0.0445469
22 0.060016137 0.029194886 0.23187408 -0.05292547 -0.013228662 0.061626676 0.09556552 -0.09714061 0.06366033 -0.006896681 0.019031903 -0.015794681 0.08530693 0.02217437 0.17541689 0.1049857 -0.16882862 -0.0064828703 0.14906666 0.07413262 -0.14937794 -0.17475864 0.008512784 0.09981913 -0.15004544 -0.04896222 0.01608188 0.24227324 0.035352584 -0.031144416 -0.24851508 -0.038807508 0.13519576 -0.06855685 0.07990824 0.10855285 -0.05161534 -0.19320998 0.039576117 0.08070989 0.12803522 0.004825444 0.12236443 0.13348763 -0.12714705 0.10935441 0.1243801 0.1784906 -0.050406184 0.04704499 0.1255287 0.14444506 -0.02430791 -0.035713546 0.02944376 -0.063843705 0.19785504 0.033885606 -0.12701532 -0.09965315 0.06583773 -0.011102972 -0.16932216 0.081741825 -0.017243221 0.0683697 0.02762019 -0.03209487 0.093069874 -0.10069179 -0.009279595 -0.14763796 -0.03583233 0.03089224 -0.002770775 0.117935404 -0.09128551 -0.12859163 -0.06740666 0.03619646 -0.10128374 0.2493584 -0.07028374 0.14716783 0.011203406 -0.09514804 0.028736517 0.07827953 0.013684489 -0.001691024 -0.036039606 0.06110154 0.12477567 -0.21602224 -0.054188147 -0.1738999 0.020460097 -0.031293765 -0.12210918 -0.003027759 0.1285837 -0.0414703 0.052602593 0.013347682 -0.1349556 -0.018263198 0.18628502 0.09569007 -0.16564453 0.15573587 0.007941737 -0.15235016 0.03754648 -0.0062165926 0.067138635 -0.047644112 0.13220073 0.09437089 -0.0092184255 0.10995789 -0.098510176 -0.0951873 -0.003240042 -0.11360315 -0.0682801 -0.027090186 0.02957009 -0.030509897
23 0.02414747 -0.0045985053 0.19886023 -0.0068046446 -0.030582126 0.07490307 0.08912147 -0.075006045 0.02932739 0.016194515 0.069528334 -0.075871326 0.044277437 0.04817979 0.18648942 0.10728067 -0.13568582 -0.0297805 0.10025858 0.041335862 -0.15603992 -0.20481099 -0.019872036 0.10651578 -0.16369544 -0.07332948 0.025666526 0.21491098 0.049176805 0.017613253 -0.16425505 -0.012003463 0.15004833 -0.06776904 0.07285772 0.09884975 -0.064439684 -0.14776681 0.009471656 0.081963934 0.16155322 0.024525557 0.11541161 0.107039124 -0.0964347 0.16281939 0.11925626 0.19247787 -0.0849059 0.033363774 0.17726383 0.12472978 -0.04378946 -0.026002454 0.036091425 -0.061937436 0.2023225 0.05873503 -0.1382961 -0.17775032 0.049900074 -0.008970449 -0.116648465 0.0914107 0.063447624 0.076106094 0.014537906 -0.043758802 0.056914404 -0.095479794 -0.00031864597 -0.09967568 -0.0012556323 0.066306636 0.038081292 0.15957323 -0.11409079 -0.097739 -0.039026126 0.038018815 -0.061351575 0.208011 -0.09520618 0.1609267 -0.0043655653 -0.09603986 0.037878875 0.0805392 0.0056186845 -0.01414524 -0.055710915 0.030785605 0.11506866 -0.24855594 -0.035697218 -0.18275021 0.061993882 0.059137978 -0.1325542 -0.08669784 0.20031036 -0.013696176 0.06805635 0.07712582 -0.13356353 -0.030124366 0.1628506 0.0551422 -0.18341762 0.20334788 -0.047082964 -0.096459925 0.10664708 0.013843036 0.12422852 -0.065904446 0.043964483 0.11995734 -0.023242993 0.09086734 -0.1059034 -0.13693438 -0.0117814895 -0.16471559 -0.05695137 0.022615159 0.068395466 -0.04481881
13 0.07056002 0.03905196 0.24824873 -0.06705746 -0.004690741 0.063950285 0.10219494 -0.111721344 0.07072493 -0.012035088 0.015965367 -0.00063999905 0.10117543 0.017701007 0.18029648 0.11463334 -0.18901323 0.0004804675 0.17123336 0.08226432 -0.16024944 -0.17960083 0.01478588 0.105830766 -0.15818678 -0.051756985 0.01647263 0.2643088 0.042199317 -0.043336503 -0.28787935 -0.05066582 0.14080025 -0.07236329 0.08364498 0.12142478 -0.057846617 -0.21139775 0.044942223 0.09055407 0.13293734 -0.0056219595 0.12720014 0.1495456 -0.14395325 0.100285485 0.12540308 0.18805781 -0.0407859 0.052483656 0.12097525 0.15555489 -0.023032913 -0.03527944 0.029341469 -0.07047076 0.21632071 0.040511664 -0.13110875 -0.08680715 0.07116532 -0.0097343745 -0.19434391 0.08528323 -0.03927807 0.06570161 0.033281527 -0.031556997 0.109175876 -0.10751379 -0.01151475 -0.16364439 -0.04421871 0.024282424 -0.013452483 0.11092555 -0.08550943 -0.13676324 -0.07735019 0.039960828 -0.11790171 0.26757503 -0.06340688 0.15364453 0.013267205 -0.095865645 0.03205841 0.081333056 0.02196271 0.0055329753 -0.025787769 0.07517102 0.12745789 -0.22038291 -0.058342412 -0.17751391 0.011418091 -0.05572871 -0.12253784 0.016760407 0.111698516 -0.04669783 0.050881572 0.0034031302 -0.1480805 -0.014286082 0.20614019 0.107521914 -0.16812675 0.15215768 0.03052544 -0.17619802 0.026537009 -0.014407875 0.05496055 -0.04091041 0.15896899 0.09235109 -0.0007727581 0.11674375 -0.10625365 -0.09286096 0.0076409318 -0.10846481 -0.07559403 -0.04510898 0.020707482 -0.02385272
18 0.03954744 0.008387068 0.2132756 -0.031615708 -0.023341537 0.07122781 0.08898398 -0.08509488 0.048563227 0.00034259868 0.041481674 -0.044062465 0.061451368 0.037448365 0.1766932 0.10858357 -0.1505877 -0.017684648 0.11827102 0.05665044 -0.14907125 -0.18308365 -0.008447197 0.10108809 -0.15707564 -0.06050146 0.019030316 0.22433007 0.04466946 -0.010464432 -0.20158581 -0.022653222 0.14739496 -0.06928992 0.07685967 0.09973047 -0.056382578 -0.17214756 0.022221994 0.08214815 0.14869757 0.014163606 0.11732365 0.11350431 -0.11441995 0.1392987 0.12372866 0.18073691 -0.062147867 0.03916554 0.15055418 0.131575 -0.03187112 -0.030291038 0.030808453 -0.064025715 0.20480959 0.050880004 -0.13406989 -0.14074498 0.058706123 -0.0120308455 -0.14102525 0.09075551 0.023391917 0.07390401 0.02592221 -0.036681697 0.07534854 -0.095133856 -0.0052341786 -0.12273641 -0.016319128 0.05183258 0.013880409 0.13529591 -0.10171468 -0.114077225 -0.053511206 0.04079405 -0.081530266 0.22684127 -0.079103105 0.15495 -0.0013425336 -0.094072215 0.034519535 0.07874032 0.011320496 -0.004837359 -0.037500087 0.039973576 0.12005744 -0.23107569 -0.042615578 -0.17809202 0.042627048 0.013505214 -0.12101233 -0.048965465 0.15868321 -0.028648825 0.061126 0.044660296 -0.13052687 -0.02306864 0.1749792 0.07117584 -0.17102668 0.1751602 -0.018507369 -0.122981474 0.07442682 0.0002687544 0.10083401 -0.054037448 0.08652526 0.103280365 -0.017576523 0.097300544 -0.1065206 -0.12006041 -0.011293486 -0.14082111 -0.059784647 -0.0017347224 0.045279626 -0.040599767
21 0.018558715 -0.007760631 0.20575102 -0.0009398269 -0.032702826 0.08304086 0.095267415 -0.07859143 0.031170284 0.012340497 0.07369329 -0.082784764 0.040514946 0.049924918 0.1944242 0.11480457 -0.13353795 -0.03734925 0.09826761 0.039485637 -0.16358553 -0.21308577 -0.019530922 0.10686466 -0.17513758 -0.08109569 0.027920788 0.22506547 0.052460454 0.021521097 -0.1582302 -0.010725203 0.16096611 -0.06602289 0.0751215 0.09942987 -0.06130458 -0.15272439 0.008850948 0.09036546 0.16609477 0.032990508 0.12274759 0.10276891 -0.09288415 0.17669179 0.12666118 0.19795004 -0.09104678 0.032639273 0.18395253 0.12050967 -0.04556758 -0.023124855 0.036185823 -0.059215706 0.20777908 0.0610921 -0.1448083 -0.18301022 0.05353289 -0.010458372 -0.11754208 0.08804784 0.07544965 0.07695964 0.011630239 -0.04958009 0.06195722 -0.10277086 0.0012939635 -0.105658546 0.000121757 0.0737687 0.04382993 0.16301861 -0.11280367 -0.09654543 -0.040671196 0.045974966 -0.05639759 0.21076208 -0.09958154 0.15632223 -0.012684504 -0.09718132 0.03732085 0.08127038 0.0059320913 -0.019837517 -0.05356741 0.026088847 0.11400969 -0.25527814 -0.036855742 -0.18987834 0.06721284 0.068078265 -0.134452 -0.0983958 0.20528701 -0.016538657 0.06492079 0.086683795 -0.1348067 -0.026411565 0.16533178 0.05462276 -0.18512522 0.20851694 -0.052098174 -0.08849605 0.11147269 0.018818686 0.13175179 -0.07452439 0.037163362 0.12039746 -0.028708091 0.08604332 -0.11320929 -0.1481639 -0.019099167 -0.17024195 -0.05470323 0.035851173 0.07028708 -0.048637543
17 0.10345697 0.07474148 0.25742832 -0.10217904 -0.009342572 0.059164334 0.087777525 -0.12558904 0.103573136 -0.01877179 -0.009330445 0.04260193 0.10800886 0.006659349 0.17808157 0.09902269 -0.21045484 0.009252475 0.197493 0.10532281 -0.121097006 -0.13154261 0.03296539 0.10146194 -0.14392945 -0.03397839 0.013625785 0.2716879 0.042803206 -0.07507122 -0.33361068 -0.06318349 0.11354294 -0.077182785 0.10141402 0.13251352 -0.03491234 -0.23329878 0.05600792 0.09084551 0.11136287 -0.017037088 0.11976451 0.14344977 -0.15129207 0.046221238 0.13134393 0.16768464 -0.011281937 0.06132596 0.10342437 0.17257665 -0.009789994 -0.041289028 0.027341919 -0.06859594 0.22232911 0.020487493 -0.12373856 -0.020357693 0.073194705 -0.004456729 -0.21513802 0.08754039 -0.09785851 0.06353015 0.05537561 -0.008941983 0.12773551 -0.098177105 -0.00508316 -0.19304913 -0.060581405 0.0067233415 -0.055646054 0.07569749 -0.07830684 -0.1421072 -0.090963066 0.028709339 -0.12775806 0.29002196 -0.045980692 0.14195722 0.021386549 -0.107373 0.024202809 0.060399186 0.016155817 0.006468227 -0.014397552 0.07941006 0.13189685 -0.18488991 -0.07750538 -0.15732412 -0.02220965 -0.104450606 -0.09413504 0.07385225 0.06782965 -0.06794988 0.05535562 -0.044628505 -0.12739556 0.006794988 0.21086225 0.1331323 -0.14389227 0.13526306 0.057556286 -0.20530403 -0.008082544 -0.030633757 0.01348912 -0.03824992 0.19621119 0.066098824 0.017365145 0.12794623 -0.102171935 -0.075128354 0.0077332756 -0.04965677 -0.07985164 -0.08417186 -0.0018048586 -0.015363195
15 0.0117019955 -0.011033407 0.21213602 0.0077299196 -0.038991217 0.08687795 0.09401779 -0.07540952 0.02510957 0.01675972 0.085161075 -0.100239776 0.026801735 0.058279272 0.19762987 0.11692283 -0.1372175 -0.040621046 0.09932762 0.039964918 -0.17042103 -0.2217526 -0.023849968 0.11503856 -0.1799847 -0.08354215 0.025635514 0.22307861 0.05504671 0.027782708 -0.14720963 -0.0019175387 0.1654743 -0.068218015 0.07807076 0.10117528 -0.06360104 -0.15104088 0.004634647 0.08743733 0.17432304 0.039510485 0.12672335 0.103300095 -0.08581796 0.1874618 0.13016374 0.20598167 -0.091161184 0.031517327 0.20131722 0.1250732 -0.048951212 -0.021572605 0.036005687 -0.059771925 0.21044175 0.06089571 -0.145268 -0.2043394 0.050106347 -0.0141558265 -0.111410856 0.09708309 0.091131754 0.08114123 0.011044496 -0.04867939 0.052778795 -0.10689884 0.0061466307 -0.09572159 0.006395232 0.08382763 0.04623817 0.17857623 -0.11998758 -0.09120909 -0.035521667 0.04129026 -0.04925818 0.2085395 -0.10198809 0.16533427 -0.00843992 -0.10124215 0.043892268 0.0807672 0.0030180085 -0.018144071 -0.060490865 0.022013104 0.11575765 -0.2679173 -0.038937192 -0.1915396 0.07614941 0.08056424 -0.13353045 -0.1148734 0.2273106 -0.014052533 0.06829964 0.09827341 -0.1359894 -0.032250743 0.15826786 0.045584995 -0.19399177 0.22362037 -0.06418828 -0.08119289 0.124299794 0.022728406 0.1504945 -0.07715331 0.021390246 0.13244207 -0.025535684 0.08908155 -0.11420308 -0.15587601 -0.020363707 -0.1773474 -0.053597942 0.043574136 0.084607504 -0.050379727
27 0.01375738 -0.014899837 0.20138144 0.012313237 -0.04056104 0.08328639 0.09314891 -0.07017923 0.026029365 0.019187167 0.08295852 -0.099022165 0.026860489 0.057645883 0.19405733 0.113535106 -0.13156994 -0.04397679 0.09549647 0.036241602 -0.16662978 -0.22278795 -0.025397362 0.11003146 -0.17340884 -0.08164343 0.023712588 0.22427694 0.06072629 0.024493705 -0.14696412 -0.00066859665 0.15773039 -0.066650905 0.07567097 0.092487805 -0.06444837 -0.14592306 0.005363417 0.09100997 0.17560153 0.03342741 0.11678208 0.09612161 -0.08041885 0.1798702 0.12465704 0.2053489 -0.09450696 0.03247499 0.19472882 0.11833986 -0.044204272 -0.018019855 0.037174623 -0.055016898 0.2064473 0.06250379 -0.13984793 -0.19700164 0.043228466 -0.0068930206 -0.10196904 0.09026379 0.09078164 0.07329889 0.01242094 -0.049895387 0.05118136 -0.09550354 0.011108565 -0.09782928 -0.0007784496 0.08550227 0.052464254 0.1727092 -0.12077827 -0.08949181 -0.035957627 0.039582826 -0.051982403 0.19784883 -0.102068424 0.15974046 -0.012065368 -0.09741018 0.03669215 0.07635157 0.0037010198 -0.022024661 -0.05417185 0.02203501 0.11367162 -0.25574812 -0.032086663 -0.19003846 0.06938549 0.07905867 -0.12713963 -0.11496028 0.21563558 -0.010999253 0.07425499 0.10154657 -0.13396548 -0.02673267 0.15648574 0.042744283 -0.18446925 0.2124807 -0.056588296 -0.07495283 0.11598744 0.017770512 0.14301233 -0.07637188 0.017904112 0.13085434 -0.02689537 0.08087888 -0.1118089 -0.15140457 -0.019642241 -0.17424297 -0.048841786 0.04352119 0.08187989 -0.04958795
16 0.030970853 0.004699953 0.21170382 -0.013342225 -0.02388603 0.07825773 0.092302375 -0.084099464 0.036779363 0.01352195 0.057981167 -0.0697271 0.044387724 0.0405639 0.1877895 0.10983859 -0.1371053 -0.029779531 0.1057357 0.050705828 -0.15844768 -0.20040898 -0.011348794 0.099803105 -0.16044556 -0.06947003 0.023234943 0.22622655 0.0439535 0.0073453514 -0.1778789 -0.017580848 0.15255174 -0.061648134 0.072772324 0.099122636 -0.05877185 -0.15364166 0.0147079555 0.0879156 0.15684049 0.024113612 0.11347284 0.10768884 -0.09948667 0.15360622 0.1239483 0.19228253 -0.07565573 0.0304909 0.16358435 0.12249301 -0.037135147 -0.022087405 0.034677316 -0.060798813 0.20153424 0.0468225 -0.13808668 -0.15845793 0.052344225 -0.012334529 -0.11921557 0.09062394 0.049158428 0.074189395 0.015487553 -0.041880194 0.06645222 -0.1006669 -0.0015393525 -0.1114189 -0.007083483 0.065746635 0.028248603 0.14908355 -0.10760169 -0.10353366 -0.044573653 0.04462431 -0.06510876 0.2088813 -0.084984705 0.14799073 -0.007577049 -0.08888674 0.033907913 0.0710045 0.007224251 -0.011132676 -0.049621373 0.029442798 0.10717972 -0.23389345 -0.03634135 -0.17422928 0.054136414 0.044290893 -0.12012101 -0.06651357 0.17753991 -0.018063482 0.05815593 0.06280714 -0.12712596 -0.01999878 0.15956336 0.0549311 -0.16287127 0.18509518 -0.03315886 -0.10092412 0.093662955 0.012037914 0.11488321 -0.06398969 0.0574037 0.106563225 -0.022178495 0.08364475 -0.101751454 -0.13392454 -0.016196184 -0.1490487 -0.051992357 0.017318433 0.058273796 -0.042938102
10 0.02473374 -0.0014556284 0.20486851 -0.010708409 -0.027790738 0.07299217 0.08819095 -0.077394776 0.02943488 0.015111066 0.06168109 -0.07281665 0.042372484 0.046785016 0.19469903 0.107586086 -0.13850904 -0.03521588 0.106145605 0.045252386 -0.16067736 -0.20314251 -0.02105587 0.1072991 -0.16883649 -0.06843722 0.022244968 0.22624111 0.048919003 0.013607548 -0.17131458 -0.013219039 0.15478967 -0.06571125 0.07148167 0.0925689 -0.06367581 -0.15674491 0.011674091 0.08156273 0.16022909 0.028536549 0.119807765 0.107157595 -0.095227554 0.1587363 0.12559131 0.19119623 -0.079495296 0.031821355 0.17381558 0.12401033 -0.04095603 -0.023581324 0.031223577 -0.060265705 0.20005843 0.052204292 -0.13949397 -0.1686156 0.05214918 -0.011497589 -0.11931625 0.08709327 0.057867438 0.07592319 0.014253697 -0.04377168 0.066522405 -0.09639842 0.0007042743 -0.109017946 -0.0079562375 0.06726625 0.039147288 0.15484121 -0.108817 -0.09990123 -0.044204634 0.04073992 -0.058763027 0.20734286 -0.09059868 0.15460078 -0.009677973 -0.08987395 0.038272936 0.07578489 0.004038095 -0.014688411 -0.051705256 0.026678072 0.1137702 -0.24482915 -0.03922318 -0.18125086 0.06239618 0.049688887 -0.12547116 -0.0864171 0.19354884 -0.016345916 0.06284768 0.073826216 -0.13016886 -0.02275737 0.15911973 0.05583903 -0.17607194 0.19944754 -0.03920547 -0.09630787 0.1011594 0.01508335 0.12581831 -0.069546476 0.05257135 0.112845495 -0.02669692 0.091569155 -0.112147264 -0.13412122 -0.017741749 -0.16008364 -0.054471873 0.026772276 0.06824224 -0.049376678
12 0.06634114 0.04372977 0.24109232 -0.063121445 -0.011836838 0.06528207 0.09395689 -0.1048581 0.07544891 -0.008819289 0.018657314 -0.006587714 0.08868081 0.024801359 0.18224424 0.10776528 -0.18238147 -0.00026161913 0.1607457 0.08459407 -0.14733614 -0.1689923 0.01495178 0.10284148 -0.15781462 -0.052745454 0.014848637 0.25514382 0.036739025 -0.040337753 -0.270409 -0.041088477 0.13009712 -0.075841315 0.08517429 0.12039296 -0.05261763 -0.20186679 0.046486758 0.08848266 0.12647009 -0.0020726724 0.12274415 0.13542277 -0.13408217 0.10012069 0.12267269 0.17917839 -0.04173998 0.05129593 0.12986788 0.148242 -0.0241895 -0.03413504 0.029617801 -0.064046025 0.21290497 0.03599654 -0.13309209 -0.08445099 0.0683551 -0.0058159274 -0.18403277 0.08538086 -0.031074336 0.0688304 0.03502533 -0.029849973 0.10281041 -0.10270148 -0.008171952 -0.16140972 -0.03811193 0.033694327 -0.015894009 0.111327305 -0.089086436 -0.13536188 -0.07277758 0.033833005 -0.10579408 0.25850996 -0.068301566 0.14413247 0.009926619 -0.09549232 0.030465638 0.0745572 0.012782224 -0.0023586855 -0.030065838 0.066938676 0.124410845 -0.21723698 -0.0576601 -0.17230459 0.012025335 -0.042324018 -0.11794992 0.0091099795 0.121262126 -0.04986555 0.06066311 0.0063216663 -0.13843623 -0.01204815 0.20090328 0.10320379 -0.16592117 0.15928388 0.01665078 -0.16048731 0.030111367 -0.0069767493 0.05930665 -0.0492076 0.14720032 0.09247563 -0.00366927 0.110279284 -0.1032074 -0.09529653 -0.0025606912 -0.10979868 -0.07348769 -0.033330195 0.025422754 -0.031569242
